712 50
career 0.0039196834 -0.003966833 0.0066639725 0.005510687 0.003756503 0.0037344187 -0.0062691984 -0.0019587874 0.005551274 0.0036813037 0.0056072827 -0.001845419 -0.0063561955 0.0046681 -0.0051259883 -0.0043363133 -0.0037691738 0.0064544803 0.0033904659 0.004338439 -0.004984376 -0.0064369026 -0.005225511 -0.004124287 -0.0027950457 -0.0055223177 0.004901431 -0.008307928 0.0028349683 -0.0072954115 0.005676364 0.0034961593 -0.006708728 0.007756431 0.002512923 -0.004511236 0.0006948842 0.0052754255 0.007626452 -0.0055936533 -0.006387071 -0.005400746 -0.006409568 -0.004302242 0.006707178 -0.0067222374 0.0051827887 0.003727497 0.0036864663 0.0059628943
from 0.004395138 -0.0046761045 0.0051676356 0.0050154296 0.0030375107 0.0049210014 -0.0029161116 -0.00165903 0.004423789 0.0047204313 0.0026238563 -0.0044196807 -0.0015656527 0.0025094617 -0.003481462 -0.0043690656 -0.0061428044 0.004043141 0.0056219744 0.0025245128 -0.0053420025 -0.003716745 -0.0027210265 -0.0044062524 -0.006244367 -0.0026780067 0.0037229941 -0.0045062923 0.0039378353 -0.0041102064 0.0055310456 0.00393466 -0.0047558974 0.0038581323 0.0039298725 -0.002611856 0.0022546998 0.006181571 0.0052961744 -0.006435289 -0.0075017824 -0.003989935 -0.0046880576 -0.0033379323 0.0057937787 -0.002821828 0.0053490903 0.005103137 0.0044044824 0.0017793294
june 0.006402577 -0.0061258986 0.0049125194 0.002831248 0.0038382022 0.0069627967 -0.005518393 0.0003219032 0.007267961 0.0048647984 0.0059257587 -0.0054253265 -0.0063336 0.004680561 -0.0056967405 -0.008050572 -0.004616499 0.005624433 0.005559979 -0.0007883496 -0.007219641 -0.0060726493 -0.0058028493 -0.0063116904 -0.0063159135 -0.007194362 0.0055565336 -0.0054736673 0.0050759437 -0.0046176966 0.003831877 0.0041181273 -0.0059680305 0.0051903515 0.005024114 -0.0054044477 -0.0022552893 0.0049381973 0.0056049465 -0.0062322854 -0.004899063 -0.0040712305 -0.0061191614 -0.0009279313 0.0060454584 -0.0046742167 0.004956884 0.0033484087 0.0058966405 0.004697354
2009 0.0028195777 -0.00270912 0.0016490121 0.004652577 0.0016579475 0.0030989137 -0.0007995179 -0.0014696197 0.0026248794 0.0023596564 0.0008832815 -0.0021449025 -0.002173074 0.0023389405 -0.001969522 -0.0029668848 -0.0027162125 0.0033111316 0.0031834668 0.0038025544 -0.0036328223 -0.002706185 -0.0027088607 -0.001964855 -0.0031410996 -0.0025942314 0.0021636977 -0.0022585369 0.0003364455 -0.0020231768 0.0032573566 0.002531563 -0.0026963311 0.0020553635 0.0030287553 -0.0023371964 -0.000849415 0.0029384757 0.0026821743 -0.0020530515 -0.0032068437 -0.0026053777 -0.00087009615 -0.0017284185 0.0023809704 -0.002707701 0.0011366997 0.0026690725 0.003838841 0.0016349581
to 0.007452256 -0.006485701 0.0062899906 0.009576941 0.007403848 0.006626809 -0.0059216623 -0.0032847081 0.007509232 -0.0010860084 0.0072225714 -0.0074569187 -0.008930204 0.007865855 -0.007057225 -0.007062825 -0.00735345 0.0060258154 0.008612577 0.005824333 -0.007657261 -0.008549406 -0.008263116 -0.008694696 -0.0074956315 -0.0046697096 0.0069675357 -0.006323268 0.0026380057 -0.0077250004 0.008582483 0.008367814 -0.0063592093 0.006320174 0.005943577 -0.0055490276 -0.006116917 0.007978841 0.0062312577 -0.0056809043 -0.0072547495 -0.007013864 -0.0074078413 -0.008822956 0.005508069 -0.0044291113 0.0033273138 0.006753961 0.007670126 0.007170931
february 0.003504142 -0.0029895396 0.0020747832 0.0032528522 0.003543234 0.004836838 -0.0049912045 0.00091258273 0.005007961 0.0033921895 0.0042648683 -0.0029575224 -0.004493989 0.0039911387 -0.0026507005 -0.0052055037 -0.0031348658 0.0050909403 0.004378408 -0.00085116236 -0.004873722 -0.0038220705 -0.004175761 -0.0046049496 -0.0037730464 -0.0050078933 0.0030743906 -0.0055371365 0.0036396575 -0.0033210267 0.0029613224 0.004211633 -0.0035310516 0.005322079 0.003968868 -0.0050922832 -0.00012065325 0.0031448188 0.00448094 -0.0046127355 -0.0031212578 -0.0033796316 -0.0026518237 -0.0014899491 0.0043153814 -0.005594828 0.0044915257 0.00343749 0.0032268062 0.0028619035
2013 0.008498286 -0.0072374186 0.008374905 0.0067931646 0.006976743 0.008098201 -0.0074604563 -0.0032197768 0.008795174 0.007533527 0.008602415 -0.0070868353 -0.008742614 0.0071695815 -0.006432529 -0.007598303 -0.0075264443 0.0086885495 0.008079868 0.0064011617 -0.008434967 -0.008309814 -0.009564659 -0.007824298 -0.006645837 -0.009079231 0.009082199 -0.008551136 0.0059422054 -0.0082356725 0.008171085 0.00728591 -0.008741399 0.009607061 0.0072949594 -0.007866646 -0.0049835807 0.008602986 0.008926545 -0.00871327 -0.0074349795 -0.006793184 -0.0076638814 -0.006611559 0.00822286 -0.007921961 0.008993659 0.0067647723 0.006335008 0.0075640287
sow 0.00024802992 0.0007977979 3.962114e-05 0.00017724471 -0.0013744382 0.0007047669 0.0008800234 0.0020969124 -0.00026608963 0.0016148511 0.00014522951 -0.00014113945 -0.00038375158 -0.0012252392 0.0006573531 -0.00060297747 0.0010524263 9.565015e-05 0.0017885545 -0.00036497347 -0.0015118449 -0.001559827 0.0005855851 -0.0011917683 0.0008470364 -0.0017188302 -0.0003205917 0.0019236701 -0.0010927048 0.0011083669 -0.00018136702 0.0007715699 5.1877523e-06 0.0012435389 0.0010702333 -0.0014341101 -0.0016140237 0.00065455266 0.0008301354 0.00021054989 0.0008498398 0.00077291054 0.00024162857 -0.00026098892 -0.0006256735 2.3070173e-05 0.0015067246 0.00023838131 -0.0010963312 -0.001209609
was 0.009694742 -0.0071326303 0.0076541873 0.0055661704 0.0066669937 0.0064762784 -0.008990618 -0.004574423 0.0071640383 0.004269829 0.00899252 -0.008540776 -0.0075313873 0.007841224 -0.008897024 -0.0069397935 -0.0075361743 0.0060889637 0.009026863 0.005057743 -0.009122544 -0.008688092 -0.009281305 -0.00854861 -0.00755675 -0.005986194 0.009967428 -0.0062150205 0.0046577947 -0.0087857265 0.009436685 0.008481307 -0.0073136976 0.0075918087 0.007924269 -0.0063048373 -0.004285964 0.008127854 0.0038862615 -0.006784542 -0.007899138 -0.008208099 -0.010102402 -0.0063199857 0.007827873 -0.0053932997 0.004992046 0.0041472046 0.009590544 0.008972503
a 0.007565942 -0.008365647 0.0045548687 0.007934066 0.006308289 0.0067142807 -0.007638913 -0.0031596588 0.0070359167 0.00083427655 0.0075021596 -0.00861748 -0.005919666 0.008166372 -0.006846635 -0.0073518893 -0.007818099 0.0067612785 0.0063730306 0.005221911 -0.007673046 -0.0071817734 -0.008429129 -0.007751137 -0.0071652876 -0.006867073 0.0075801285 -0.0060253823 0.004458039 -0.007748856 0.00760626 0.006688721 -0.008793868 0.007052337 0.0069412435 -0.004139259 -0.005445832 0.0076151043 0.006546075 -0.00502894 -0.0075328904 -0.008327518 -0.0074228356 -0.0061023147 0.008309338 -0.0049962252 0.00479271 0.006918591 0.008920907 0.008739342
technical 0.0021646796 -0.0024958872 0.0020985526 0.0017398241 0.0009932106 -0.0002161585 -0.0013146818 0.0014668655 0.00059223076 -0.0013576914 0.0014308861 -0.0012244757 -0.00013215872 0.0005687308 -0.0021022384 -0.00131162 -0.0012123317 0.0023981167 0.0023396346 -0.00034176273 -0.001818422 -0.0014335368 -0.0021404603 -0.0017509187 -0.0025621944 -0.0004523498 0.0017402 -0.0010598028 0.0020806715 -0.00012142366 0.0017606566 0.0013628477 -0.0012693084 0.00060747686 0.0018063601 -0.0029195468 -0.0028933524 -0.00022464056 0.0007952567 -0.0026952953 -0.00091145886 -0.00027243028 -0.0012520576 -0.0012156839 0.00018783569 -0.000500008 0.0015343504 0.0025580733 0.0011629357 6.949545e-05
<UNK> 0.00011512608 -0.00065223576 -0.00069419487 0.0002511543 0.00056695245 0.00012113055 0.00016297569 0.00065395265 0.00038238853 -0.0003486752 8.758373e-05 5.2450763e-05 0.00012352498 0.00029946567 -0.0001697315 0.0006560167 0.0005827754 -0.00030645405 -0.00067238545 6.594055e-05 0.0006167654 0.0004990511 1.1180884e-05 0.00050266605 -0.00016359676 -0.00037165097 -0.00066362874 0.0001340275 -0.00034963508 0.0005956676 -0.00024658188 -0.00025015097 0.00035075884 -0.00056443503 -0.00067184115 0.0004631058 -3.718822e-05 -0.0001934538 0.0005840179 1.0035172e-05 0.0003046784 4.8330257e-05 0.00034382305 -9.646674e-05 -3.8198006e-05 6.063981e-05 -0.0005346796 0.00048240222 -0.00023885487 -0.00021381391
the 0.0106996605 -0.010921389 0.0084070265 0.010052905 0.009569035 0.009343517 -0.009958579 -0.0028302167 0.008800082 0.00050901674 0.009268316 -0.01064084 -0.009420982 0.0114262635 -0.010622265 -0.010600463 -0.0105053 0.0077725947 0.010114134 0.005554862 -0.011240818 -0.010080671 -0.009298813 -0.011938808 -0.010025838 -0.00647169 0.010948899 -0.008442269 0.005705516 -0.008854888 0.010979404 0.012686493 -0.010171667 0.010120195 0.011011714 -0.0062792287 -0.0066740713 0.007096437 0.0066790823 -0.011975341 -0.008708433 -0.009043581 -0.009926885 -0.009418879 0.0073714633 -0.005598768 0.0056240573 0.007964377 0.010915903 0.008790149
prime 0.005576938 -0.0062908786 -0.0038012743 0.005208536 0.0046122586 0.0056047468 -0.0067861318 -0.0014830873 0.005813869 -0.0073592607 0.0051048915 -0.0068086362 -0.0052508544 0.007889775 -0.0065701716 -0.0069206124 -0.004795007 0.0067392364 0.0057637845 -0.0013137701 -0.0072891642 -0.0058173854 -0.006372903 -0.0065180687 -0.005810908 -0.0066435654 0.0062177707 -0.0053569116 -0.0043067513 -0.0054949047 0.0050079664 0.0037860288 -0.0070433323 0.0054005445 0.00757769 -0.0073559796 -0.0073901378 0.0067828833 0.003929029 -0.006725208 -0.006762048 -0.0062620062 -0.0070354706 -0.006358308 0.004822759 0.0001094776 0.006863924 0.007563171 0.0062333373 0.0075047747
minister -0.0006305065 -0.0068078437 -0.00059542066 0.0020523637 -0.0016674321 0.007554954 -0.0029083977 -0.0053441715 0.0006818945 -0.0043078326 -0.0006187567 -0.007041452 -0.0011047608 0.004624072 -0.0039541316 -0.005968677 0.002062317 0.0064265467 0.005249166 -0.0032046072 -0.006215465 -0.0030003418 -0.006096736 -0.0036196667 -0.0012855096 -0.0070959358 0.0063679228 -0.0023029672 -0.0036319373 -0.0061175576 0.003449776 0.0008618919 -0.0064551816 0.0013737498 0.0029109924 -0.0050322115 -0.0047872188 0.0056380956 0.0039692638 -0.005762971 -0.0050436044 -0.0057253637 -0.006332276 -0.000993183 0.005359975 0.0030923379 0.00694973 0.005373783 0.0020402821 0.0069302805
of 0.009849988 -0.0100815045 0.009410021 0.009612643 0.0106367115 0.009819299 -0.0096122725 -0.00046914627 0.008520713 0.0010405681 0.008798104 -0.010677122 -0.009219372 0.009722235 -0.0100540705 -0.0095046675 -0.009016791 0.008717192 0.010089996 0.008923952 -0.009222461 -0.010607876 -0.008807997 -0.0112792635 -0.011339639 -0.0054523167 0.010323335 -0.008454255 0.004382686 -0.0079567935 0.009515943 0.011630671 -0.009725032 0.01130714 0.012087597 -0.0065784864 -0.007960149 0.009859889 0.0075543183 -0.010731845 -0.007216754 -0.011732202 -0.010413954 -0.01050121 0.008792357 -0.00824669 0.009930843 0.009523972 0.010856614 0.00821067
for 0.005726591 -0.006311085 0.004519882 0.0067063896 0.00735496 0.006263131 -0.006791945 0.0010319792 0.0063540344 -0.0036625895 0.00552433 -0.0075499644 -0.007862538 0.006973044 -0.007212082 -0.006501056 -0.006202661 0.0057819304 0.006418306 0.0036497058 -0.0083787395 -0.0074415547 -0.004804934 -0.0065998966 -0.005437462 -0.005655503 0.006635608 -0.0053179115 0.0014099702 -0.0073679923 0.008661185 0.008422639 -0.0055935686 0.005090678 0.0068611605 -0.0035014835 -0.0058737416 0.0059759067 0.004169132 -0.005587096 -0.004647425 -0.00656806 -0.005555209 -0.008073536 0.005068739 -0.00442521 9.7561264e-05 0.0061566015 0.0070182416 0.0060712285
and 0.007501712 -0.007830363 0.0057650115 0.0073312833 0.007494062 0.008179806 -0.00856244 -0.000364256 0.006566432 0.004680501 0.0064149587 -0.008873986 -0.0076344498 0.008950651 -0.0068583884 -0.008514889 -0.007455135 0.0074847243 0.007610044 0.0041931425 -0.008307151 -0.009119445 -0.0063724588 -0.008816016 -0.0075705983 -0.006423693 0.009074143 -0.0071788444 0.0025626207 -0.006827318 0.009744706 0.008203276 -0.008720708 0.009390219 0.008587285 -0.007815457 -0.004244101 0.0075055235 0.0059528016 -0.0055983774 -0.0070306747 -0.008867652 -0.0072891223 -0.0067652003 0.006617877 -0.0054347054 0.0049673375 0.006729738 0.007951075 0.0069619105
development 0.00055590627 -0.002404035 0.00013766043 0.0026712231 0.00093799643 0.0037022005 -0.0018547692 0.0034971854 0.0022726397 -0.0014690666 0.002117217 -0.0033539897 -0.0019491224 0.0015736178 -0.0022352552 -0.0032504417 -0.0024019794 0.0029243736 0.0022281168 -0.0019985097 -0.0032845095 -0.0025872607 -0.0018080156 -0.0028861645 -0.0009910633 -0.0014010788 0.0007619598 -0.001212555 -0.0018559764 -0.0013897521 0.0018308737 0.001773072 -0.0017939805 0.0018272391 0.0030589795 -0.0018958731 0.0007029908 0.0014129827 0.0025386696 -0.0040170383 -0.003429623 -0.0024810103 -0.0015110779 -0.0029157056 0.0014534814 -0.001102548 0.0008477383 0.0018221844 0.0025028032 0.0014724765
october 0.0050734067 -0.0031059706 0.0054556867 0.0012024576 0.0030358685 0.0037136853 -0.004943606 -0.0019245336 0.004489854 0.005490609 0.004867509 -0.0025281566 -0.0043717013 0.004377053 -0.003695219 -0.0048893797 -0.0024228583 0.0029309958 0.0042566224 0.0027033924 -0.0044133933 -0.003787811 -0.0032617508 -0.0034830016 -0.0034042278 -0.0056127002 0.003561901 -0.005655704 0.0059394743 -0.004015067 0.003104946 0.0029415323 -0.0043351073 0.0028137257 0.0036514138 -0.005958601 -0.00031552542 0.005262782 0.003531081 -0.004952782 -0.0051103025 -0.001781291 -0.0038699945 -0.0007335176 0.0058203298 -0.00569106 0.004525584 0.002973163 0.003799498 0.0035500817
at 0.0043770988 -0.0024466084 0.0035134682 0.002405108 0.0009930169 0.002420617 -0.003790745 0.0005994023 0.0026170306 -0.0014851091 0.002005912 -0.0035164293 -0.0021295887 0.0016609692 -0.0045554093 -0.0026855443 -0.0017744633 -0.0004125185 0.0018361366 0.005388359 -0.0034680841 -0.0052782046 -0.002099487 -0.005056407 -0.0040997756 0.0009121229 0.0033757696 -0.003145626 0.0022799282 -0.00369266 0.0049734 0.004938604 -0.0041259653 0.00383425 0.003555165 -0.0026024473 0.00060054904 0.002076944 0.0027602587 -0.003177824 -0.0022869073 -0.0044726734 -0.0037588852 -0.00095643546 0.0039246986 -0.0016148045 0.0023052604 0.0019351009 0.0042221243 0.0018313396
april 0.0008313991 -0.001161139 -0.0003508266 -0.0001020543 -0.0030879087 1.0746195e-05 -0.00043542383 -0.000106004816 0.00029658366 0.002062351 0.0027472228 -0.0005539864 5.6128934e-05 0.0022335462 0.0009946193 -0.00092027365 -0.00047571666 -0.0013386185 -0.00018042269 -0.0025722894 -0.0021337864 0.001033779 -0.001935326 -0.0010405069 0.0011487418 -0.0016472478 -0.00031043048 -0.0027411198 0.0017338003 -0.000264175 0.00017433501 0.0010591962 -0.0024383026 0.0017768722 0.0006672711 -0.0016468202 0.002808004 6.685301e-05 0.0025689655 -0.0018276016 0.00027153373 -0.0010293678 0.0021676186 0.0018223632 0.0023352418 -0.0021935387 0.0022639998 -0.00045821175 -0.0005105516 0.00030185617
2014 0.0040703067 -0.0041063274 0.0047554085 0.002742719 0.0012145536 0.0027678548 -0.004483596 -0.0010471251 0.0045673125 0.003267436 0.003200441 -0.0032418603 -0.002757497 0.0030969647 -0.0026676166 -0.005486295 -0.003258428 0.0027764847 0.0034014548 0.0021838036 -0.004283852 -0.003442822 -0.003869482 -0.004729163 -0.0012894946 -0.004847142 0.0031069235 -0.004018357 0.004433432 -0.0057836436 0.0029884083 0.0014078694 -0.003976882 0.0057287733 0.002450646 -0.0032027592 0.00033027303 0.001994874 0.0018559386 -0.002803199 -0.005215562 -0.0020066653 -0.002381266 -0.0014031688 0.0030102571 -0.003930427 0.0019871355 0.0029509494 0.0032913536 0.0035226196
held 0.0036364277 -0.0038892708 0.0036761202 0.0028800399 0.0021288965 0.0032642502 -0.0024356616 -0.00017846447 0.004288976 0.0022722408 0.0023565805 -0.004325121 -0.00425411 0.0036281976 -0.0029316978 -0.0031485655 -0.0031199453 0.0026838193 0.003676154 0.003368386 -0.003540734 -0.004272423 -0.003697836 -0.0042993585 -0.0031804002 -0.003341926 0.0039229533 -0.0040714764 0.0030828416 -0.0020622828 0.0041466937 0.0039834785 -0.0037808565 0.0023591076 0.003296841 -0.003532617 -0.0011240201 0.0035029743 0.0030286007 -0.003429346 -0.002912914 -0.0034329216 -0.0036484748 -0.0026435577 0.004038313 -0.002727113 0.0038269057 0.0030887923 0.0030635346 0.003948573
post 0.0020462524 -0.0028780773 0.0010674573 0.001627391 0.003176631 0.002416292 -0.0020865798 0.0009963791 0.0026031663 -0.0019400246 0.0014034413 -0.003115183 -0.0006711007 0.0028335704 -0.0007707086 -0.0027744926 -0.0012047554 0.004571387 0.0041797757 -0.0011659844 -0.0030854205 -0.0026994061 -0.00321631 -0.0038181401 -0.002497093 -0.0031848599 0.0018468492 -0.0009275614 0.0008624445 -0.0022575671 0.0034501753 0.0017018912 -0.0022855354 0.0032637392 0.0028149534 -0.0022826933 -0.003910569 0.003567019 0.0022442164 -0.002558447 -0.0019694597 -0.0010613065 -0.0011079528 -0.0039906893 8.806199e-05 -0.0026016096 0.0016394774 0.003788199 0.0009547844 0.00052968576
women 0.0020118926 -0.0024696642 0.0010290196 0.002454201 0.0025005792 0.0021673744 -0.0020810494 0.0008006428 0.0012270868 -0.0012391498 0.0012962944 -0.0015477646 -0.0020506612 0.0020060576 -0.0024177423 -0.0022641937 -0.0023936464 0.0017685189 0.0014868559 0.0006721783 -0.0017955645 -0.0025618055 -0.0013009025 -0.0017641826 -0.003750129 -0.0021641278 0.0013684748 -0.0015312156 0.00050521194 -0.0022921553 0.0024360144 0.0021658372 -0.002349427 0.0037707859 0.0015432461 -0.0028689662 -0.0041071884 0.002659592 0.0008791206 -0.004011709 -0.0025266802 -0.0018859067 -0.0014500564 -0.0027533981 0.0017233491 -0.0023397445 0.0035251605 0.0027442144 0.0030652352 0.0018963453
august 0.0062990976 -0.0049704197 0.0029314058 0.0032740931 0.0014438118 0.0030024655 -0.0031453536 -0.00062803517 0.00609742 0.0051795 0.0048147882 -0.0045050355 -0.0042189197 0.005625828 -0.0017694549 -0.0051317634 -0.0035561507 0.003954682 0.005298756 -0.00049000076 -0.0034394788 -0.0037685954 -0.003181558 -0.0045192624 -0.0021429216 -0.0048975646 0.0034134423 -0.005704038 0.0053391173 -0.0030192845 0.0029086864 0.0033869245 -0.0050131176 0.0046465066 0.0036097097 -0.005261808 -0.0018014567 0.0026851285 0.0020140314 -0.0035378837 -0.002965373 -0.003452291 -0.0021022756 -0.003293749 0.0054055876 -0.0060335584 0.0032729276 0.0026723347 0.0021425807 0.0040110713
2015 0.0027821772 -0.0022143123 0.0036786078 0.0024885647 0.0019144397 0.002529647 -0.0030063463 0.00084681646 0.0027428223 0.003757062 0.003294805 -0.0021663138 -0.0033371942 0.0022996762 -0.0005004232 -0.0036483535 -0.003734893 0.0020172342 0.0028480757 0.0017390657 -0.0028639962 -0.0025576309 -0.0024610218 -0.0042987918 -0.0024451131 -0.0028502536 0.0024452708 -0.004019476 0.0028312404 -0.0025948735 0.0031662278 0.0034946075 -0.0026931516 0.0047378065 0.002921494 -0.0037207475 -0.0011990967 0.0031716528 0.0020542187 -0.0026406415 -0.0019987794 -0.0033252565 -0.00024186324 -0.00085656525 0.0039056332 -0.0053810333 0.005106285 0.0020935691 0.0018258728 0.0022900372
secretary 0.005439012 -0.0049892473 0.0036973462 0.0037967723 0.005531201 0.00453134 -0.0054660398 -0.0012822628 0.006252089 -0.002790196 0.005039016 -0.004439628 -0.0036009324 0.0053759394 -0.0036348524 -0.0044217175 -0.0050100065 0.005357166 0.00591983 0.0022182446 -0.0065049864 -0.0057888795 -0.0058366708 -0.0045945705 -0.0051939692 -0.0029819293 0.0049350685 -0.004203112 0.0024430712 -0.004037468 0.0056558936 0.004271471 -0.005352486 0.0044706054 0.0054422547 -0.0042418377 -0.0031508757 0.0021345504 0.0050026583 -0.005852767 -0.0048470586 -0.0046843546 -0.005165901 -0.0040546264 0.00401548 -0.0024331775 0.004755844 0.005346718 0.0057072802 0.0036020798
state 0.0022942482 -0.0027476486 0.00047568735 0.0014834526 0.002994677 0.0025824816 -0.0017503371 0.0031280764 0.0017337481 -0.00092472456 0.0014038672 -0.003457194 -0.00083589356 0.0023104881 -0.0012069074 -0.002451672 -0.0010748046 0.0016032759 0.0011427681 0.00092213263 -0.001854892 -0.0015063816 -0.0007328609 -0.0028506073 -0.004129854 -0.0009533798 0.0031585142 -0.0013214359 -0.0010303812 -0.0014589898 0.0023851397 0.002266679 -0.0023016413 0.0033526788 0.0025520483 -0.0024985042 -0.0019196786 0.0011023299 0.002923547 -0.0022560735 -0.0011079231 -0.0022122962 -0.002742382 -0.0031620117 0.0029903615 0.00032405462 0.002561381 0.0031106896 0.0019058776 0.0013200819
finance 0.0023362802 -0.0016445271 0.0007886141 0.0023250382 0.0021116037 0.002215191 -0.001332024 -0.0013560354 0.002022889 -0.0012725863 0.0025162108 -0.0022298316 -0.001716422 0.0026181352 -0.0031531693 -0.0033475973 -0.00035198277 0.0018105687 0.0026361567 0.00084416295 -0.0015074494 2.8163782e-05 -0.00068310084 -0.00081176497 -0.0007570364 -0.002355576 0.0006266156 -0.001464636 -0.00087073515 -0.0027919908 0.00063979777 0.0009080917 -0.003259754 0.00062853703 0.0020748351 -0.0027183357 -0.0010882827 0.00048061012 0.00064492115 -0.0020729469 -0.0017278825 -0.0021184334 -0.0027598056 -0.00027592873 0.0019875814 -0.0024238254 0.0011611048 0.0021019266 0.002556258 0.002220825
in 0.00820735 -0.007967511 0.007810898 0.009764356 0.008211281 0.008799505 -0.009143083 -0.0046356153 0.008431839 0.0039279275 0.00978661 -0.008944557 -0.008679865 0.006700291 -0.008788493 -0.006692485 -0.010332986 0.008615749 0.008417725 0.005977104 -0.008552839 -0.011010687 -0.009996831 -0.008004623 -0.0076919454 -0.008019943 0.010594856 -0.008676335 0.004553828 -0.009537802 0.008429761 0.009911467 -0.008431245 0.0065032328 0.009263689 -0.005343384 -0.0028043978 0.011395359 0.010337726 -0.008374887 -0.009066378 -0.009341477 -0.008270034 -0.0076925196 0.009267855 -0.0060078297 0.010175657 0.010365974 0.010097256 0.009924363
november 0.0054492545 -0.004962359 0.005969156 0.0027495623 0.0034366774 0.004885007 -0.0058444636 -0.0042992877 0.0063155526 0.0072215796 0.006008469 -0.0031179194 -0.005698681 0.005574616 -0.003405918 -0.006519004 -0.004557263 0.0051161917 0.004791431 0.0016062498 -0.004705673 -0.00535742 -0.0051596323 -0.00563991 -0.0039148955 -0.0059497003 0.004766985 -0.0063343127 0.007137117 -0.0061070905 0.00482258 0.005808936 -0.0051529845 0.0057208627 0.0053564087 -0.0074931853 -0.0031441376 0.004983939 0.005791759 -0.0052395915 -0.004948618 -0.0020171674 -0.0053151054 -0.0028159786 0.0053860783 -0.0078458665 0.005888948 0.00244665 0.003261257 0.0059056752
2016 0.0018760756 -0.0013496461 0.0032663993 0.0015276045 -0.00089632027 0.0015003319 -0.0021046125 0.0005519423 0.0034232535 0.001997782 0.0032866227 -0.0023089643 -0.0017633063 0.0019257169 -0.00065641943 -0.0016949301 -0.0020787506 0.0013571607 0.0026594074 -0.00021682667 -0.0034349265 -0.0025689628 -0.0036944095 -0.00195581 -0.00084659003 -0.0036350414 0.002540859 -0.002220476 0.0006129981 -0.0033035493 0.00077675236 0.0016060888 -0.0012041195 0.0024810082 0.0016922083 -0.0034245406 -0.001024591 0.0011923189 0.003472164 -0.0028248671 -0.0018886584 -0.0016577408 -0.0012421957 -0.00030623906 0.0020226324 -0.0028110503 0.0023981496 0.0005026811 0.001956099 0.0029713754
general 0.006015776 -0.0055505414 0.004582446 0.0042033587 0.004142068 0.003928862 -0.0042533106 -0.0034850133 0.0051819654 -0.0030804288 0.0039139944 -0.004644391 -0.0061673974 0.0034594703 -0.0033236623 -0.004710127 -0.0041593593 0.0026428648 0.00542186 0.004039603 -0.0063623544 -0.0047192937 -0.005405353 -0.0060818354 -0.0048664357 -0.004000186 0.005232242 -0.004301515 0.00011480565 -0.004568258 0.006140982 0.0061419858 -0.004902729 0.004694119 0.0049931356 -0.0035368486 -0.0047251577 0.002445137 0.004638812 -0.005905231 -0.005335025 -0.004846576 -0.0046083173 -0.0044012247 0.0054485993 -0.0037691416 0.001971126 0.0053488594 0.0049110167 0.00365572
court -0.00029377942 4.6442277e-05 0.0013077072 -0.00066300883 4.289097e-05 0.00019521381 0.00079807674 0.0015552575 0.0006934662 -0.0011076255 0.00046108963 -0.0006412444 -0.00083208125 0.0005114291 -0.0008769908 -0.00053720176 -0.0006134843 0.00083289 -0.00029535533 -0.0012689846 -0.0005903999 0.00021490597 0.000104456616 -0.00030526388 -0.00048703238 7.659042e-05 -0.0002778808 0.00018020794 -8.193968e-05 -8.798095e-05 -0.0012932345 0.000739257 -3.3501583e-05 0.0003156644 -0.00021601537 0.00039402748 0.0009831223 -0.00061750575 0.0007851778 -0.00094731885 0.0007725728 -0.00012058128 0.0005210799 -0.00071728294 0.0004497858 -0.0008170019 -0.0006325418 -0.00028929973 0.00031090554 0.00064501754
2017 0.0030852465 -0.0039040127 0.0037643276 0.0028177113 0.0032671292 0.0051072 -0.0043558297 -0.0017479141 0.0053566517 0.0056919893 0.0050241034 -0.0036337995 -0.0052557616 0.0046328325 -0.00075492315 -0.004682559 -0.0024493665 0.003552459 0.0037526682 0.0018714397 -0.0035069732 -0.0033986385 -0.005049507 -0.0036332086 -0.00057214155 -0.0031748025 0.0042465385 -0.004070771 0.0030928762 -0.0044922894 0.0027624823 0.004653352 -0.0050478834 0.0047861305 0.004321954 -0.004577921 -0.0018052462 0.0034017751 0.0038639768 -0.004206798 -0.002920125 -0.003304653 -0.0025243065 -0.003023753 0.0030604957 -0.0035898127 0.0042306487 0.0025915706 0.0028784336 0.0052996776
up 0.0055917543 -0.0070750755 0.0064162076 0.0059015453 0.007179689 0.0054578385 -0.0050254073 -0.001829248 0.005920686 0.0014623614 0.0046455855 -0.004792549 -0.0056013623 0.004619682 -0.0061420444 -0.00536806 -0.0076377545 0.0054786815 0.004786161 0.005196729 -0.007036611 -0.0071556466 -0.0066786404 -0.0063487785 -0.0060205227 -0.0049787546 0.005907375 -0.00537499 0.0029582023 -0.00640935 0.0071317824 0.0064068246 -0.0057099476 0.006039864 0.0062674168 -0.0027516761 -0.0027379142 0.007132319 0.0044943225 -0.006318617 -0.005774645 -0.0065601044 -0.006159974 -0.0050485944 0.0051547056 -0.0048105507 0.005776471 0.0058726594 0.006417965 0.0043294625
5 0.004684567 -0.003137166 0.0042165783 0.001160674 0.001524228 0.005071447 -0.0048865466 -0.0018617649 0.0059474315 0.005839576 0.004805106 -0.004629539 -0.005223537 0.0061122673 -0.0026655726 -0.0051587373 -0.0020201418 0.0055230237 0.0023405785 0.0013770183 -0.0046788063 -0.004230676 -0.00531148 -0.0040435386 -0.002306593 -0.005472714 0.0046500824 -0.005648793 0.0053738803 -0.005012846 0.004523975 0.004479477 -0.005096618 0.004517383 0.0026210388 -0.0056435983 0.00040875893 0.0032422466 0.004719469 -0.004601496 -0.0065790294 -0.000878407 -0.0029808886 -0.0026924878 0.005863141 -0.005437503 0.0044683716 0.00095676165 0.004010467 0.004595348
21 0.0010270763 -0.0005562435 0.0034152912 -0.0013923836 -0.0017607554 0.003731351 -0.0051341117 -0.0014749911 0.0041817115 0.0050253156 0.005012766 -0.00092254335 -0.004215651 0.0040068207 0.0017257623 -0.0051896214 0.0017257062 0.0037638727 -0.00038903483 -0.003487083 -0.0042137834 -0.0018412403 -0.003244665 -0.0027700472 4.3286007e-05 -0.005764785 0.0016134332 -0.004560824 0.004466801 -0.0022637441 -0.00019716892 0.0023112812 -0.004554387 0.0043602004 6.937194e-05 -0.005115834 0.0020864492 -0.00020857457 0.002845695 -0.0034235558 -0.0012954014 -0.00092724746 -0.002081918 0.0002617636 0.0053640325 -0.0048459433 0.0048841755 -0.00052564655 0.0004927446 0.0037112932
as 0.004111962 -0.004084228 -0.00069092575 0.005698418 0.0042164023 0.0051078475 -0.006363001 -0.002862597 0.0036808643 0.0013502233 0.0028030484 -0.0056911814 -0.0014275174 0.004616114 -0.004133142 -0.0027461417 -0.005997485 0.001955751 0.003602774 0.0035065142 -0.004527981 -0.004065566 -0.00417551 -0.0034443534 -0.003283652 -0.00016221132 0.005351685 -0.004301879 -8.021135e-05 -0.0026353453 0.0060183853 0.0045195925 -0.00533682 -0.00016300516 0.005504961 0.0023451329 -0.0022830912 0.0053411885 0.0057003805 -0.0027539285 -0.0020240438 -0.0032618458 -0.0060914694 -0.004934012 0.0043278756 -0.0006412273 0.0025358337 0.0068070344 0.00501996 0.0044603827
2018 0.0030740832 -0.0032018754 0.0040738382 0.003468237 0.0028492843 0.0033955069 -0.0038129005 -0.003906079 0.0041104015 0.0032254397 0.0026894074 -0.0034732812 -0.0038354676 0.0038094649 -0.0021232893 -0.0043557156 -0.0029501684 0.0021117926 0.0019784367 0.0015704086 -0.003347523 -0.003987053 -0.0031211541 -0.0034998371 -0.0033921348 -0.004852829 0.0038864056 -0.003872712 0.003621501 -0.0033305301 0.0044060997 0.0043775383 -0.0035259845 0.0041868016 0.002212938 -0.0043727737 -0.001983068 0.0040614125 0.00399798 -0.0043909703 -0.0032421283 -0.0038208284 -0.0022250281 -0.0011643647 0.0042251647 -0.004430078 0.0016145941 0.0024315692 0.0030249092 0.0026730003
chief 0.0009104702 -0.0014427432 -8.498567e-06 -0.00021492991 0.0016125451 0.0013453751 0.0008780405 0.0005658417 -0.00036366595 -0.0027257793 -0.00014710866 -3.6568097e-05 1.3200614e-05 0.00031899608 4.1864846e-06 0.00089250325 -0.00087667094 -0.0009045595 0.0013202531 0.0018934045 -0.00092094933 0.0011047394 0.001630462 -0.0006223565 0.00042279618 0.0004487697 -0.00079814554 -0.00011098785 -0.000568086 0.0007143468 0.00022980753 0.0007621529 0.00080928206 0.0004518035 0.001622422 0.00047730023 -0.0036243827 -0.00094098377 -0.0015576635 -0.0005825249 0.0005617833 -0.0016688672 4.0016424e-05 -0.0007097187 -0.000619327 0.00097438315 -0.00070988387 0.0012099843 -0.00020696005 -0.00068379927
staff 0.0020911894 -0.0015811039 0.0016226658 0.0016326781 0.0026629176 0.00092219026 -3.221177e-05 -0.002316888 0.0027467047 0.00084551104 0.0005736305 -0.0008345123 -0.002789378 0.0017199649 -0.00074978964 -0.0015411705 -0.0004022234 0.0013329543 0.0016248004 0.0001730356 -0.0017121492 -0.0020350495 -0.0006291008 -0.002628299 -0.0010692873 -0.0016731918 0.00130368 -0.002057108 -0.00028424175 -0.0014621507 0.0020430598 0.0017804166 -0.0014681433 0.0027689077 0.0009702 -0.00041550782 -0.0019048211 0.00045624413 -3.1012976e-06 -0.0020992241 -0.0010071006 -0.0011304592 -0.0018132664 -0.002356221 0.00088328955 0.00085061346 0.002795189 0.0019131926 0.0019600692 0.0011135266
president 0.0022407158 -0.0013798989 -0.0028427376 -0.00016770326 0.0010227157 0.0052577564 -0.0028534902 -0.0041936925 0.00024018377 -0.003286566 0.00036535456 -0.0044672512 -0.003454786 0.0039809598 -0.0022479089 -0.0019230848 -0.0030141412 0.004381475 0.0025373094 -0.0010187535 -0.0033472949 -0.0012798167 -0.002139882 -0.00074739347 -0.0031196866 -0.0014882685 0.0040460466 -0.0005137417 -0.00039391618 -0.0030536845 0.001589138 0.0013759936 -0.002877525 0.0006907256 0.003135192 -0.00045500192 -0.0049700947 0.0022231676 -0.0004475109 -0.002865693 -0.0007822161 -0.0037200067 -0.004090391 -0.0034781364 0.002666367 0.0023365791 0.0030341346 0.0024481001 0.0026609108 0.004316186
early 0.0012299283 -0.0037913537 0.004087974 0.0021888523 0.002897675 0.0012857488 -0.003628283 -0.0014807256 0.0042975196 0.005635468 0.00041730545 -0.0008148039 0.0014489763 0.0028218834 -0.0041420953 -0.0022787354 -0.0059800064 0.002509581 0.0036182662 0.0054664235 -0.001103141 -0.002732656 -0.0007082613 -0.0025264495 -0.00088131696 -0.0018108664 0.0035770421 -0.0013134354 0.005572611 -0.0018468157 0.0045634913 -0.00012595841 -0.002569844 0.0034985316 0.004697077 -0.00086841494 -0.0030557537 0.0022241063 0.0032157106 -0.0012526319 -0.0018968057 0.0010705161 -0.004393803 -0.0010780677 0.005056051 -0.0022720338 0.0025179624 0.0026301125 -0.00013887986 0.0018079731
life 0.0066667814 -0.0063841287 0.008511548 0.0057387846 0.005180221 0.0061743846 -0.00840887 -0.00130993 0.007145931 0.0044271518 0.007912916 -0.0047317627 -0.008239957 0.0042264774 -0.0060815 -0.0068901572 -0.0077038673 0.005909126 0.0073990976 0.0072106225 -0.008481856 -0.009118516 -0.009382285 -0.00798008 -0.008358937 -0.007615624 0.008363602 -0.0061311005 0.005165777 -0.007626926 0.0072616814 0.008753991 -0.0053003514 0.005762173 0.005707331 -0.007540796 -0.0032871529 0.0059333746 0.0071524675 -0.0064560976 -0.007899961 -0.0047314144 -0.009170628 -0.007136324 0.008077855 -0.0071139215 0.0054422994 0.002782856 0.007200433 0.0065277014
olsi 0.00039106468 -0.0015269787 0.00054009206 0.0006898975 0.0017291745 0.0014654577 -0.0009050976 0.0023260037 0.0018193712 -0.00032218493 -0.00030607896 -0.00026552728 -0.0012558002 0.00029646713 -0.00017415853 -0.00068695657 -0.0019282377 0.0020047287 0.00078183104 0.00033577913 -0.0008319705 -0.002099148 -0.0016453655 -0.0006131011 -0.0018286881 -0.0012949025 -6.0748232e-05 -0.0015596725 -0.00094888604 -0.00088799885 0.0011708823 0.00069000165 -0.0019822943 0.0010492333 -0.00022424523 -0.0020774468 0.00040037013 0.00051366905 -3.1627784e-05 -0.0004297198 -0.00010062444 -0.0006631655 -0.0014793643 -0.00058902346 0.0019556887 -0.0009816895 0.0002945206 0.0017826493 -0.00029732854 0.0014365091
born 0.0024882918 -0.003572246 0.0056876196 0.0015376132 -0.00058914867 0.003797833 -0.0045460025 -0.0040453025 0.005981948 0.006803169 0.0018530544 -0.0011805929 -0.0015733609 0.0026885385 0.00018441449 -0.0039004225 -0.0041441475 0.0022865343 0.0043010367 0.004673927 -0.0024037303 -0.003014942 -0.0035418472 -0.0022633655 -0.0027402223 -0.0011246925 0.0034796314 -0.004472757 0.00604534 -0.002265263 0.0031962865 0.0016739544 -0.004519052 0.0038474214 0.00080955884 -0.004839595 -0.002349014 0.002595945 0.004866804 -0.004097319 -0.0013595641 -3.531667e-05 -0.0038745513 0.0002899358 0.0052072653 -0.0062972903 0.0067243804 -1.3291861e-05 -0.0004833269 0.0036452308
well 0.0062677693 -0.006082777 0.0016230261 0.005223928 0.003518301 0.0040129554 -0.0051878304 0.0004178567 0.005722263 -0.00035216138 0.004701026 -0.004449445 -0.0028594516 0.0046452717 -0.005089763 -0.0047973436 -0.0038885572 0.0038181904 0.00484157 0.0033265427 -0.0043998607 -0.0043250266 -0.005444075 -0.005157256 -0.0050159376 -0.0030651456 0.0049546803 -0.0036470501 0.001876097 -0.0044757403 0.0056176186 0.004939202 -0.0057685818 0.004778944 0.0045879716 -0.0003285439 -0.0051381732 0.0050880616 0.0019656448 -0.003461037 -0.0041938187 -0.0054591387 -0.0050038244 -0.004100657 0.004271854 -0.0036395143 -0.00050196366 0.004636468 0.0047829323 0.0056691994
known 0.0032108626 -0.0020709326 0.0019058569 4.4119326e-05 0.0019469794 0.0018564783 -0.0025640235 -0.00067453086 0.0018842358 -0.00015685435 0.0021157195 -0.0020846932 -0.0018527594 0.00136955 -0.0032505365 -0.0021584434 -0.00090899505 0.0024737893 0.0021416037 0.003119907 -0.0013874846 -0.0008062703 -0.00044141873 -0.0015299348 -0.0021890195 -0.0023168528 0.0017300666 -0.0010101452 0.0014787931 -0.0019553555 0.0026778728 0.0022403672 -0.001603411 0.0009526912 0.002303929 0.0002751114 -0.0031214058 0.002287417 0.00079183275 -0.0018200198 -0.0029654712 -0.0017558063 -0.0030112602 -0.0024212296 0.00208665 -0.00081935385 -0.0019020137 0.0014866163 0.0026434904 0.0018750007
who 0.0043468038 -0.0038284017 0.0044808863 0.006420178 0.0025338966 0.0030206435 -0.0023907295 -0.0019592291 0.0035702973 0.0027182968 0.0025502634 -0.0023324708 -0.0046877777 0.0015695227 -0.0050306837 -0.003674116 -0.0029557964 0.00035852968 0.0033364692 0.004822771 -0.002964262 -0.004989821 -0.0019632822 -0.0027857597 -0.0027269179 -0.0021711693 0.002938781 -0.0035222992 0.0027599495 -0.0038498105 0.0045754258 0.004565319 -0.004226852 0.0037236651 0.002825436 -0.00024437034 -0.00033193003 0.0032665625 0.003773229 -0.0017137538 -0.0043343296 -0.003724865 -0.0045397533 -0.0027769117 0.004247093 -0.0025714517 0.0012564032 0.0014968313 0.003551588 0.003044672
during 0.0044143014 -0.0064847264 0.0040982855 0.007593392 0.0063209226 0.003455841 -0.0049071205 -0.0059114383 0.0038083054 0.0033107619 0.0064813904 -0.0038806766 -0.0055328165 0.0065770596 -0.0062657474 -0.00505447 -0.0049808226 0.0052281152 0.0049346383 0.0057655238 -0.0047648945 -0.0057636756 -0.0047663064 -0.005150624 -0.0038947354 -0.0049334997 0.00525948 -0.0067187934 0.0047459737 -0.0061830166 0.0059046415 0.003515022 -0.006934393 0.006943357 0.006557287 -0.0041282554 -0.0019646331 0.0072256275 0.0054000034 -0.005029845 -0.007245228 -0.0049083563 -0.004806995 -0.005028469 0.0050945724 -0.0066652256 0.006808128 0.004201746 0.0045575066 0.0040212083
is 0.007943315 -0.00667774 0.0048119947 0.004741595 0.0031477646 0.006890945 -0.0053496878 -0.0004234733 0.008210151 6.963293e-05 0.0021347106 -0.0077285324 -0.007429647 0.007316657 -0.0029698734 -0.007141627 -0.0040910724 0.0058666426 0.0051825945 0.001746054 -0.0057087783 -0.0048784385 -0.0045659104 -0.0077477302 -0.006248759 -0.004258632 0.006418675 -0.0041256202 0.0035639547 -0.0060361926 0.00812927 0.0071496004 -0.006638019 0.009139562 0.006798385 -0.005381143 -0.0049731517 0.0047637457 0.0045875693 -0.006183811 -0.00536414 -0.005063401 -0.006881628 -0.005119489 0.0067332485 -0.0060734563 0.004831562 0.0047274744 0.00557899 0.005917728
younger 0.0020530678 -0.0016078451 0.0026226642 0.0015391727 0.0024330146 0.0018275749 -0.0022977705 0.001173107 0.0010916946 -0.00061258074 0.001000474 -0.0032726517 -0.0010769946 0.0013542952 -0.0021042563 -0.0029329816 -0.0014215702 0.0023276773 0.002872516 0.0007568811 -0.0015507401 -0.0013129069 -0.0025257901 -0.00056991004 -0.0018155714 -0.0017245546 0.0014495886 -0.0011393484 0.0016654327 -0.0016986291 0.001509422 0.0012208003 -0.0020279496 0.0023344238 0.00068434206 -0.0031105715 -0.0022760197 0.0021097807 0.00027882037 -0.001023954 -0.0013484006 -0.00052982563 -0.0029157891 0.00019484326 0.0031338264 -0.0007746375 -0.00012811272 -0.00030692705 0.0016300979 0.0008127977
brother 0.0033587664 -0.0031153373 0.0035755644 0.00023163018 0.0014823262 0.0023916648 -0.0028725455 0.0014818566 0.0038656364 -0.0004088239 0.002582009 -0.003546389 -0.0035129385 0.0031598413 -0.0034825443 -0.0026894945 -0.0011436098 0.0019436845 0.0015400576 0.0019743189 -0.004216495 -0.0026286668 -0.0028417544 -0.002507697 -0.0018675986 -0.0023000517 0.0041043847 -0.0037316207 0.0015890517 -0.0038380157 0.0033295413 0.0035456116 -0.0040396205 0.0024477842 0.002759319 -0.0025158438 -0.00035433203 0.003708416 0.003180834 -0.0024363569 -0.0051376373 -0.0033978708 -0.002330641 -0.0014262025 0.0034942955 -0.0019743624 0.0013389757 0.0026899085 0.0027444363 0.0026391344
played 0.0037391933 -0.004512485 0.0033799233 0.004110572 0.00446926 0.0031132167 -0.0025902947 -0.002160115 0.0027696704 0.00021420191 0.0034426556 -0.0038891186 -0.0039111543 0.003607978 -0.0031480354 -0.002636073 -0.0024014723 0.004563508 0.0038824251 0.0020700525 -0.0045856885 -0.00417011 -0.002513813 -0.0034149592 -0.0031840615 -0.0033584419 0.0034263793 -0.0028926944 0.0013029078 -0.0024288455 0.0037659004 0.003514122 -0.004548095 0.003346583 0.0035831751 -0.002416636 0.0029091965 0.0031263928 0.0041708597 -0.00416446 -0.0037560575 -0.0036837508 -0.004568364 -0.003157857 0.003614663 -0.0032512061 0.00026098176 0.0026029716 0.0030298254 0.0030878712
his 0.005924438 -0.0071635717 0.0060625705 0.009259055 0.007701983 0.0053913984 -0.0061322637 -0.002272177 0.006454862 0.0008747361 0.006865074 -0.00783125 -0.0065873135 0.007061764 -0.0066133537 -0.004818923 -0.00743505 0.007303653 0.0076922835 0.007935729 -0.007238398 -0.008077925 -0.008532846 -0.0075397803 -0.006973977 -0.0045314594 0.0078115817 -0.006330668 0.0034359724 -0.00598182 0.008450477 0.008116456 -0.007323823 0.006336003 0.0061294297 -0.0034618664 -0.0033812919 0.009049007 0.005700018 -0.005034614 -0.006312691 -0.009044367 -0.006916043 -0.00722687 0.0055883606 -0.003357256 0.0072469315 0.009290946 0.007605477 0.005400589
1996 0.0025850728 -0.0034953044 0.002683668 0.0014495141 0.0020480028 0.002926255 -0.002856753 -0.00032700412 0.002283549 0.0005419519 0.0028013156 -0.0028286264 -0.0023308408 0.0018734592 -0.0028100428 -0.0030719554 -0.0023041116 0.0023197418 0.0026633611 0.0006248306 -0.0020779027 -0.0029727146 -0.002799678 -0.0014437947 -0.0025260772 -0.0029151235 0.0037779056 -0.002633112 0.0018279674 -0.0029324747 0.0020821437 0.0033277003 -0.0024908993 0.0011271288 0.0026304757 4.3052563e-07 -0.0013405184 0.001472321 0.0016773599 -0.0028400584 -0.0018873163 -0.0011470468 -0.0022945304 -0.001786904 0.0031565716 -0.0013723653 0.0002569157 0.0016365862 0.0026588007 0.0027924408
1993 0.00076709816 -0.0005145661 0.0006231383 0.00049452164 0.00083259575 0.00033523864 -0.0014852791 0.00048042656 0.00047189437 -0.0006151403 0.0018637402 0.00059051416 -0.00030756474 -0.0005314794 -0.001126007 -3.0617914e-05 -0.0011506383 0.00038266822 7.5075564e-05 0.0019264773 -0.00038380205 0.00034962097 -0.0005836828 -0.00083891215 -0.0008334099 -0.00090513995 0.00017833363 -0.00015971684 0.0013810077 -0.0011040769 0.001269958 0.0008383891 -5.537068e-07 0.00057365705 -7.424965e-05 -0.0011603037 -0.00020516902 0.00035895404 0.001554561 0.000104104896 -0.00029391385 -0.0016146639 -0.0011616459 -0.0014581858 0.0009846659 -0.0005938463 0.0009868334 7.9654485e-05 0.0021171842 0.00063125393
1997 0.0031890492 -0.0023021617 0.0011707332 0.0025465232 0.0034702152 0.0034648883 -0.0023004129 -0.00045811618 0.0020912483 -0.0011937257 0.0022367 -0.0028364589 -0.0014045179 0.0023484256 -0.0028771667 -0.002407405 -0.003699439 0.0018795131 0.0020975627 0.0021987997 -0.0031980514 -0.0028230862 -0.0012214528 -0.0022824276 -0.0029755966 -0.00051682664 0.0030676967 -0.0011334971 0.0013316206 -0.0014413589 0.0031268466 0.003499314 -0.0026166108 0.0023713298 0.0029722983 -0.0014909805 -0.0028896725 0.00291257 0.0029602563 -0.0018793211 -0.0028763812 -0.002870315 -0.0028542315 -0.0034439948 0.0021242874 -0.0010141147 -0.00028980593 0.0036605857 0.0026082806 0.0021801407
he 0.010190685 -0.011662205 0.0065267063 0.011118376 0.008355035 0.009564086 -0.01009623 -0.003926894 0.010556377 0.003488972 0.008224782 -0.009151067 -0.009216886 0.009962619 -0.008593865 -0.008010982 -0.0101799965 0.0076005906 0.01030439 0.008515725 -0.00889143 -0.011919707 -0.008194522 -0.009784741 -0.012229214 -0.006578859 0.009772073 -0.007231137 0.0028696263 -0.009069602 0.010784314 0.0102705555 -0.009780286 0.0066698194 0.010200913 -0.0049684998 -0.0043685553 0.009581858 0.007402485 -0.008561151 -0.009768233 -0.010234651 -0.009662338 -0.010945531 0.009874396 -0.006366913 0.0080741355 0.01201451 0.010271426 0.008023816
program 0.00176084 -0.0017001474 0.0023889218 0.0014086368 0.0005710686 0.0020731774 -0.0015951383 -0.0027161564 0.0021991055 0.0024322006 0.002898176 -0.002240243 -0.0019285214 0.0016222855 -0.0028564252 -0.0023524014 -0.002764129 0.0013681485 0.0018655534 0.003274312 -0.0019001368 -0.002368834 -0.0011560429 -0.0027079412 -0.0026654182 -0.0016397065 0.002454158 -0.0022798749 0.0017794843 -0.0019455946 0.0028984288 0.0018947189 -0.0027056972 0.0023401857 0.0029897268 -0.0014095271 -0.0010312361 0.0015630937 0.0016523299 -0.0020426349 -0.0014711883 -0.0026638228 -0.0021456145 -0.0010839318 0.0025607173 -0.0023545895 0.0029576474 0.0015021014 0.0021253328 0.0013766688
society 0.0018081348 -0.0011770064 0.0016524285 0.002471873 -0.001307118 0.0002566597 -0.00037579125 0.00056248525 0.00092819246 -0.0007185655 0.0022643954 -0.0023352474 0.00085903966 0.00040986587 -0.0008153595 -0.00089938066 -0.0008227356 0.00048795185 0.00014428743 -0.00023023666 -0.0007459234 -0.0015065654 -0.00034492862 -0.00092896336 -0.001923653 -0.001350441 -0.00013371685 -0.0015266486 0.0004635338 -0.0015353216 0.0013309697 0.0034494274 -0.0022974869 0.0012333978 0.00011332598 -0.00026745326 -0.0005558484 0.001059701 0.0026181396 -0.0018026597 9.591494e-05 -0.0010564096 -0.0024280925 -0.0032759204 0.0005604657 -0.0007332595 0.0017089389 0.002452989 0.0021023443 0.0013593662
where 0.0065616798 -0.0057084616 0.0055314866 0.0064512496 0.0065626637 0.005938592 -0.005808034 -0.0024373706 0.0044043697 0.0030454274 0.002927673 -0.006099663 -0.0032636148 0.0037608766 -0.004093835 -0.004836807 -0.006568263 0.004247234 0.005435217 0.006649907 -0.0043732827 -0.0071898326 -0.005869621 -0.0054128203 -0.0056531043 -0.0024011028 0.0062560085 -0.0049671438 0.0036763125 -0.004706493 0.0060198796 0.0072843 -0.003984263 0.0045821853 0.0047030454 -0.0019140645 0.00047694115 0.005487853 0.0056484872 -0.0040956587 -0.00518437 -0.0061488273 -0.0068799187 -0.0056918114 0.0041030766 -0.001625933 0.0030674327 0.0064645293 0.0076022693 0.0063666906
health 0.0006291165 -0.0019516591 0.0021537086 0.0018125044 0.00053786533 -0.00076808775 -0.00030124243 0.0015100826 0.0014118311 -0.0021841803 0.001237559 -0.00023793471 -8.510181e-05 0.0015477003 -0.0011326962 -0.0007711658 -0.0007211944 0.00051726133 0.0003532444 0.00072642876 -0.0010758273 -0.0007041606 -0.0016446672 0.00045406027 -0.0018050002 -0.00030591752 0.0013441301 0.00044544652 0.00029397267 -0.00081634684 0.000109418164 0.0017515252 -0.0014311414 -2.1044976e-05 0.0014938333 0.00084009935 -0.0018364472 0.000969963 -0.00034213573 -0.001491125 -0.00036317445 -0.0018623975 -0.0005720625 -0.0012486102 -0.00027127043 0.0006163551 0.001532165 0.0003613244 0.0010294634 -0.00029050725
east 0.00037166048 -0.0017987421 0.0016629607 0.0023145708 0.0021268316 0.0022868838 -0.00097290176 0.0007765494 0.0012537682 0.0014808326 0.00088841876 -0.0005702595 -0.000787421 0.0008917263 -0.001351942 -0.0021729823 -0.001283029 0.000539071 0.00057597866 0.0016608312 -0.0019512975 -0.001273158 -0.00069873076 3.5568213e-05 -0.0009455352 -0.001901884 0.0010396561 -0.0006985897 -0.00032081723 -0.0013780469 0.0014585943 0.00061590265 -0.00065498217 0.000258109 -0.00023823352 0.0010212053 -0.0009261374 0.0018756688 0.0023163317 -0.0018786407 0.00076705794 2.8832363e-05 -0.0015093024 -0.00062945386 0.0002457615 -0.0007648963 0.000408335 -0.00059366215 3.932343e-05 0.0014371538
moved 0.0010149833 -0.0023924136 0.00089248666 0.0018753118 0.0021892868 -0.00029011891 -0.00104099 -0.0021113118 0.0011722471 0.0016735605 0.0012787981 -0.0003712818 -0.003430421 0.0003591865 -8.208883e-05 -0.001317256 -0.0026175587 0.00030379146 0.0019166281 0.0034337936 -0.0015338318 -0.0018119029 -1.8112021e-05 -0.00044238503 -0.0020543216 -0.0026704369 -0.00022824164 -0.0025139074 -0.000688925 -0.0010042575 0.002292563 0.0010602035 0.00014321311 0.0016324645 0.0016746816 -0.00366925 -0.0003570138 0.0019129192 0.002219279 -0.00060294033 -0.0010428143 -0.0014695541 -0.00047734732 -0.0008317929 0.0015138581 -0.0021063157 0.0019415519 0.0008319399 0.00047016225 0.00050809653
united 0.0023763918 -0.0029856805 0.0013481668 0.003245013 0.0030476542 0.002191424 -0.001238877 -0.0011639863 0.0024381191 0.0012074987 0.0014249872 -0.00040133996 -0.0033109346 0.001879323 -0.0028073008 -0.001190462 -0.0015058394 0.0025602889 0.0017844334 0.0018701343 -0.0015506783 -0.0026658163 -0.0030882342 -0.0018041569 -0.0016274526 -0.0028767867 0.0018324857 -0.0029522777 0.0018863882 -0.002811135 0.0015853153 0.0030736604 -0.0014103348 0.001817691 0.0012172667 -0.00068271736 -0.0018474614 0.0017038125 0.0030265138 -0.0021043755 -0.0026594142 -0.00225847 -0.0015702032 -0.0033866647 0.0017835271 -0.002519619 0.0022518702 0.0037893243 0.0018869655 0.0025918891
after 0.0064880583 -0.008565301 0.008077921 0.010084591 0.011492514 0.006959602 -0.0072035957 -0.0029178185 0.00623404 0.0041939043 0.007956273 -0.00624875 -0.006377401 0.006086495 -0.009546953 -0.005612922 -0.007355278 0.008470145 0.00816103 0.007666598 -0.0065989136 -0.009556396 -0.006719938 -0.0072006593 -0.006823927 -0.0064136563 0.008771042 -0.0070146723 0.0044518188 -0.007962142 0.010058461 0.008732909 -0.0070749684 0.008933175 0.008317001 -0.0047517014 -0.0041315625 0.008760895 0.006717338 -0.0049263146 -0.0072450074 -0.007543384 -0.007896339 -0.008699444 0.005406435 -0.0069234874 0.0061603403 0.005654748 0.007865221 0.0056639006
by 0.0068252627 -0.0050884476 0.0045055 0.0056134267 0.006496817 0.0052847103 -0.0057040127 -0.00437035 0.005871418 0.003732069 0.0052244444 -0.0054100296 -0.0044159056 0.0056566643 -0.008138806 -0.005214355 -0.006512397 0.0044777957 0.005292038 0.0055372906 -0.00726639 -0.0066062403 -0.005786255 -0.0061996477 -0.0040013604 -0.0031367226 0.0059222747 -0.0046194107 0.0031456335 -0.005035058 0.0062178997 0.007437779 -0.0050258427 0.005557618 0.007862315 -0.0028391816 -0.0051822695 0.0065855216 0.0052884985 -0.0067104576 -0.00597807 -0.0054043815 -0.006768241 -0.006477404 0.007227391 -0.0029439526 0.0049447664 0.0058418512 0.0060349205 0.006046741
service 0.0006585426 -0.0015620785 -0.001248823 0.00078724703 -6.799943e-05 0.00186528 -0.00067157665 0.0016939582 0.00081902806 -0.0012975412 -0.00018640283 0.00050746667 0.0012624672 -0.00059674593 0.00037724627 0.00029208214 -0.00239439 0.0002781496 -0.0019587495 0.00017209513 -0.0016904646 -0.00018654228 0.0019132546 0.00068622275 -0.00033863046 -0.0009425591 0.00020851 -4.164046e-06 -0.0010833275 -0.00036183206 0.0012689537 0.0005310679 -0.0008321488 0.0008425272 0.000109580695 0.00085074647 -0.00027452895 -0.0013116883 0.0004545812 0.00087182835 0.0010366136 -0.0012772327 -0.0029467721 -0.000796151 0.00024506424 0.0011443716 -0.00019708219 0.0010957555 0.00025846882 0.0019224229
because 0.0044073337 -0.0029588982 0.0014585932 0.002890119 0.004248796 0.0017544325 -0.0038181797 -0.0003314902 0.001665527 -0.00016081292 0.0034209548 -0.0042218138 -0.0028017035 0.00232075 -0.0046386644 -0.00111989 -0.004442538 0.0020932131 0.0040422436 0.0035113634 -0.004635247 -0.004034225 -0.003953504 -0.003958602 -0.0039848946 -0.000524518 0.0052680024 -0.0008696968 0.0018627947 -0.0016774465 0.0040123793 0.0043008155 -0.0026091598 0.0039523495 0.0045150216 -0.00012131024 -0.0032936963 0.00508808 0.0016079908 -0.0037382732 -0.004641221 -0.004177987 -0.0047215535 -0.0025798443 0.0034862037 -0.0020331328 0.0016116288 0.002871255 0.0039751446 0.0031720211
with 0.0064432994 -0.006615041 0.004287969 0.0065512653 0.005038095 0.006497717 -0.006427349 -0.002401557 0.0067666345 0.0038980916 0.0072173886 -0.007935142 -0.0059052613 0.0064333435 -0.006785943 -0.0069593336 -0.008189144 0.0059332172 0.007889721 0.0048640287 -0.008459109 -0.005517531 -0.0069552045 -0.005295815 -0.0059257224 -0.0047704116 0.0065009077 -0.006798253 0.004124144 -0.0056666248 0.0066492287 0.00503903 -0.005715988 0.0069096712 0.0064946967 -0.0055130054 -0.003493802 0.0065740487 0.0055893916 -0.006067856 -0.0049072485 -0.0068744486 -0.0053714043 -0.005962729 0.007821016 -0.006940141 0.0022328466 0.0060387314 0.0052869217 0.005558558
television 0.0022303422 -0.0025535545 0.0021846555 0.0019823734 0.0014698189 0.0021747139 -0.00046465418 -0.00086261623 0.0022723293 0.0004990094 0.0021228371 -9.613172e-05 -0.0007854724 0.0022748278 -0.0017289555 -0.0024482212 -0.0023729245 0.0018665763 0.0020720768 0.0001971369 -0.0026508102 -0.0017754185 -0.001528538 -0.0016300558 -0.0030483145 -0.00079247437 0.001734108 -0.0032579782 0.001497827 -0.0027620567 0.0010647345 0.0022377789 -0.0014805184 0.0025138254 0.0025432715 -0.0009453215 -0.0018440582 0.003181493 0.0025244646 -0.0022274568 -0.002109941 -0.0011073533 0.00024235819 -0.0008780777 0.0018885111 -0.002783378 0.001772507 0.00378112 0.0010626789 0.00018028649
news 0.0028764736 -0.002154189 0.0042344416 0.0008285179 0.0021831943 0.002704265 -0.0017776863 -0.0012496535 0.0034317856 -0.00081098813 0.0026508959 -0.0029703046 -0.0032293727 0.0020252552 -0.0026828183 -0.0036267596 -0.0013873661 0.0037253413 0.003380234 0.00069314556 -0.0040551317 -0.0034816293 -0.0037926906 -0.0040669153 -0.003659967 -0.00260673 0.0027941111 -0.0023127869 0.001849978 -0.0037872721 0.0028519225 0.0028035142 -0.004107898 0.0044665146 0.003254946 -0.00059294945 -0.0013729621 0.0024351536 0.0015637244 -0.0033136874 -0.0035396635 -0.0028091157 -0.0013726973 -0.002214319 0.003919102 -0.0042479336 0.0018034184 0.0011219076 0.0032859796 0.002748288
other 0.003944668 -0.003034988 0.0015335074 0.004346748 0.0028038286 0.0017875135 -0.0028599335 0.00044726065 0.0037047835 -0.0021140152 0.0024397492 -0.0026074299 -0.0014423942 0.0044655683 -0.0020704642 -0.0040423707 -0.0023676264 0.0030299954 0.0026977544 0.00089115696 -0.0023942534 -0.0038413932 -0.003097249 -0.0030930394 -0.0031721424 -0.0027622567 0.0028726393 -0.0015205038 0.0024858266 -0.0027167918 0.003534649 0.004076778 -0.004878465 0.0040076966 0.0020683722 -0.00080442 -0.0012123734 0.0018748083 0.0027357736 -0.0035662095 -0.0025662975 -0.0036792702 -0.0018200639 -0.003773365 0.0035414004 -0.0021893443 4.955914e-05 0.0033189722 0.0047733025 0.003484959
stay 0.0023843737 -0.0016308177 0.0027130137 0.0018867854 0.0017444674 0.0003930003 -0.0012596119 -7.597472e-05 0.0027875656 0.0018033021 0.0009942398 -0.0028027045 -0.001454126 0.000637085 -0.0018591563 -0.0014273707 -0.001398972 0.0011098784 0.0017667324 0.0014114595 -0.0012548534 -0.0016076239 -0.0023184975 -0.0013918083 -0.0013910396 -0.0008580802 0.0021745125 -0.0008719338 0.0011568116 -0.0016943449 0.0017815543 0.0016693572 -0.0020890895 0.0027701908 0.0029468816 -0.001337452 -0.0017957358 0.002124633 0.003387124 -0.0013406022 -0.0018375461 -0.0013306948 -0.0015928058 -0.001448598 0.002950353 -0.0018036384 0.0019961877 0.0015765886 0.0018383126 0.0021855347
worked 0.0044672824 -0.0047547123 0.0016282192 0.003319567 0.0044120345 0.0021923014 -0.0015547139 -0.00077593455 0.002341522 0.0005795749 0.0011927305 -0.004030934 -0.0009037158 0.0014045946 -0.005919807 -0.0018056645 -0.0046191756 0.0016574179 0.0030778768 0.0026419146 -0.0027384001 -0.0026897269 -0.0029097332 -0.00250026 -0.0044714613 -0.0013764517 0.002397574 -0.0019065143 0.002969081 -0.0030488544 0.0021440915 0.002058647 -0.0021055103 0.0034614995 0.0048527685 0.00083179923 -0.0029418166 0.0044565303 0.001758015 -0.004333308 -0.0026147258 -0.0028122216 -0.0028614094 -0.002379428 0.0041846195 -0.0009680868 0.0006964728 0.003828471 0.0023368897 0.0031559665
manager 0.0019708306 -0.002697525 0.001621639 0.0026870673 0.0018939079 0.0032128505 -0.0024871915 -4.28451e-05 0.0017713567 0.003117631 0.0027592105 -0.0028206562 -0.0017477708 0.0030621742 -0.0032005447 -0.0024121327 -0.0027024972 0.0024123997 0.0019426139 0.00028423945 -0.0030421615 -0.0021992659 -0.0013749643 -0.0025161558 -0.0006956041 -0.00042341778 0.0018411146 -0.001096774 0.0012013449 -0.002337973 0.0018610323 0.0029073313 -0.0033518884 0.0029116038 0.0018600615 -0.0017630318 -0.0019941365 0.00281403 0.002483475 -0.0016704511 -0.002654643 -0.0016951547 -0.0010815422 -0.0021042859 0.0027921123 -0.0012210985 0.0019037718 0.0022940012 0.0033714916 0.002842029
cancer -0.00057197723 0.0005521747 0.00014446744 0.0006795232 0.00075001956 0.00072509696 -0.00046881012 0.0016042363 0.0005389042 -0.00077968236 0.00029528237 -0.0007451077 -0.00086997845 0.00019403928 -6.493426e-05 -0.00022005633 -0.0006878434 0.00042871383 -0.0001009717 -0.00013705868 -0.0006580368 0.00026735204 0.00028875857 -0.000108485125 0.00052563986 0.00011145603 0.00020648105 -0.0001794972 0.0005390211 -0.0007771674 0.00077791436 -2.7008878e-06 -0.0004727235 -0.0005187384 0.0007422965 -0.0002585633 0.0019066365 0.00019567194 0.00025515928 0.00052850373 0.00056411076 -0.0002913679 0.00031344633 3.3249027e-05 -0.00044530604 -0.00016473788 0.0004116891 -0.00036968692 0.00035021815 -0.0001551043
institute 0.0029287457 -0.0032280278 0.002328508 0.0020568483 0.00263805 0.0014054872 -0.0034137648 0.0006772989 0.0035321824 0.0025419786 0.0027617482 -0.002379265 -0.002611867 0.00355135 -0.0017682421 -0.0021163083 -0.0022272996 0.0015206869 0.0018430664 -0.00016219243 -0.0012655279 -0.0030468463 -0.0021975168 -0.0024524704 -0.0035238296 -0.0017682465 0.0016777976 -0.0027711696 0.0014044532 -0.0023545413 0.0025207961 0.0024261207 -0.0014840505 0.001965572 0.0025375509 -0.0024481856 -0.0001671508 0.0027796912 0.002899115 -0.0030937784 -0.002437476 -0.0026198886 -0.0019690695 -0.0019029418 0.0032639361 -0.0028247146 0.0018463944 0.0024921128 0.0022969241 0.0022991109
one 0.007846842 -0.005873716 0.007429001 0.0065988465 0.006561797 0.005495867 -0.007988166 -0.003063938 0.0069186795 0.002210389 0.00770287 -0.0066458723 -0.007217738 0.0066016787 -0.005919193 -0.0068351566 -0.0062845 0.0058183894 0.0068315715 0.007415888 -0.0074214586 -0.007912142 -0.00685076 -0.008239241 -0.0065946397 -0.005676817 0.0076928716 -0.0050327852 0.0040748245 -0.0076757483 0.0068776617 0.007042381 -0.0076200063 0.005897033 0.0066476464 -0.006182558 -0.0032763798 0.006480483 0.0059452443 -0.0060154567 -0.007386592 -0.007998598 -0.007124051 -0.0058298195 0.0069151493 -0.0059512947 0.0067983586 0.0048531005 0.007115643 0.0077037443
addition 0.0020158312 -0.001975143 0.00018622223 0.00190671 0.0020862806 0.0017774142 -0.0015993745 0.0009977069 0.0014161607 -0.000845115 0.0007754974 -0.001303754 -0.0009126057 0.0019798512 -0.0022635306 -0.0008866811 -0.0019170869 0.0026226698 0.0012275879 0.00127299 -0.0011554413 -0.0022532027 -0.0017547252 -0.0008404361 -0.0022917376 -0.00086638273 0.0014683679 -0.0017433984 0.00096583896 -0.0020318446 0.0025298866 0.000995068 -0.0017471951 0.0015767469 0.0029118462 8.705823e-06 -0.0014978009 0.003107469 0.0027063296 -0.0015395001 -0.00181805 -0.0018173606 -0.0017456417 -0.0026709936 0.0011916303 -0.0020708134 0.001673423 0.0035530622 0.0017921935 0.0023830433
has 0.006283657 -0.0044556693 0.0029810925 0.004112026 0.0046960292 0.0039769956 -0.0030172518 -0.005454231 0.0033390822 -0.001173045 0.0039765844 -0.0047775735 -0.0047444454 0.0061566234 -0.0035888222 -0.003852463 -0.004987442 0.003620831 0.004403753 0.003951958 -0.006074809 -0.0046911594 -0.0049589397 -0.0049143923 -0.0042623077 -0.0037102322 0.0046412847 -0.0047111227 0.0024505972 -0.005941733 0.0053314595 0.0041466737 -0.0051098834 0.0030860791 0.0040456615 -0.0039034397 -0.0032412875 0.004468057 0.0051796883 -0.003609115 -0.0048571937 -0.006018293 -0.005629507 -0.004067402 0.0033568789 -0.0023304953 0.0034283146 0.00439209 0.0041023646 0.0046280078
also 0.004967425 -0.0062553636 0.0024689552 0.005275128 0.0055450583 0.0058240592 -0.004960177 -0.0035145222 0.0047886646 -0.0027118486 0.0035171828 -0.0051441374 -0.0047049895 0.0062474534 -0.0058723576 -0.004042452 -0.005709585 0.0045578177 0.004371866 0.0035487623 -0.0064073056 -0.0055400725 -0.0048024068 -0.0052534537 -0.0053551737 -0.0026271895 0.005001849 -0.0032217663 0.0023265376 -0.004673643 0.006410727 0.00559275 -0.0073127267 0.004043181 0.0055850195 0.0014027352 -0.0038457422 0.004168494 0.0029686058 -0.003608712 -0.0055086613 -0.0057692737 -0.006534646 -0.0068086362 0.0046022506 -0.0018412699 0.0024537381 0.004801439 0.0058866097 0.0059214053
several 0.0006719338 -0.0010049194 0.00078220235 0.00015930465 0.0017863654 0.00096352515 -0.00029629807 -0.0012405752 0.0014941597 0.0024776391 0.0016500367 -0.00081151025 -0.00021002538 0.0004541508 -0.003377654 -0.0014749771 -0.0017128361 0.00064945075 0.0010524306 0.0014133642 -0.0010482181 -0.0011589311 -0.0011329039 -6.108317e-05 0.0003839015 -0.0010734618 0.00054925145 -0.001155016 0.0026952308 -0.0009885521 0.0011470645 0.00076692173 -0.00037384356 0.0019004277 0.0028544422 -0.001171285 -0.0018085937 0.0013370477 0.002317219 -0.00088973023 -0.001998374 -0.0009834829 -0.0005898467 -0.0011645322 0.0012659037 -0.0014929369 0.0009833798 0.0009473586 2.3732075e-05 0.00028928937
their 0.007411478 -0.005863315 0.0020388174 0.0066710166 0.0053548613 0.006180881 -0.004782246 -0.0016272514 0.0056670876 -0.00013962993 0.0052943653 -0.0051035834 -0.007031336 0.0057372134 -0.0072557013 -0.0061816764 -0.0055444906 0.0056715687 0.0063555627 0.0027477972 -0.006055143 -0.0053469073 -0.0059028063 -0.0070970226 -0.0052252016 -0.00520609 0.005097855 -0.0054724077 0.000744462 -0.0072423443 0.006116581 0.0059376988 -0.0057055876 0.005559063 0.0062841545 -0.0036524034 -0.005516942 0.0051420345 0.0043491325 -0.0045753266 -0.006232854 -0.0048627895 -0.005676649 -0.008138238 0.0057594613 -0.00456349 0.0018502726 0.006486142 0.0068061636 0.005798214
contract -0.00048696177 6.900832e-05 -0.0008495785 0.0010409335 0.0002046328 7.108646e-05 -0.0001566783 0.00053819135 -0.00034523194 0.0024491826 0.0010053768 -0.0015633455 0.0015247338 -0.00013556785 -0.0015969727 -0.00026223998 -0.0007724543 0.00079888554 0.0005030236 -0.00091234443 -0.0008963162 0.00047928872 -0.0009506093 -6.385732e-05 0.0011167717 0.00052468583 0.0009206733 -0.00016850843 0.0011279059 0.000114159535 0.0004004745 -1.0968909e-05 -0.00018056983 0.0010858948 0.0010082938 0.0010216621 0.0012485875 -0.00032106732 0.0003966622 -0.00082300894 -9.494437e-05 -0.0007142406 0.00087396556 -0.00043009277 0.0006364998 -0.000744491 0.0009720888 -3.0305091e-05 0.0006243391 -0.00018621827
national 0.0006400418 -0.0029005678 0.003099763 0.0038381417 0.003337756 0.0016474026 -0.002697104 0.0044686347 0.0018096325 -0.00260673 0.00034036575 -0.0018340087 -0.0007035016 0.0015836528 -0.0015552602 -0.0015191747 -0.0023052625 0.0029250698 0.0013190047 0.00033284916 -0.002241884 -0.0024177236 -0.00073247176 -0.00294487 -0.0025163614 -0.0032471982 0.0003412812 -0.0025806688 -0.0006726079 -0.0016711312 0.002188177 0.0014498441 -0.002000768 0.0041300585 0.0025261424 -0.0023059926 -0.003180655 -0.0010490711 0.0030569835 -0.002127448 -0.00020128851 -0.0011875255 -0.00025903934 -0.0015536892 0.0024613566 -0.0033491945 0.00014235852 0.0032595068 0.0042049163 0.001989561
personal 0.0031977263 -0.0035231682 0.0059433435 0.0036849268 0.0038709706 0.0028403702 -0.004397924 -0.0019128746 0.005517359 0.0046020057 0.0022238216 -0.0033028864 -0.0016943992 0.0030114716 -0.0033569853 -0.0040578884 -0.0041893926 0.0040140525 0.0030594333 0.004590774 -0.0027806829 -0.005049692 -0.0035227502 -0.004231517 -0.0040720105 -0.0040698964 0.0032133737 -0.0027409622 0.005494576 -0.0016835956 0.0052539543 0.0016799213 -0.004470074 0.0039701937 0.0043262793 -0.004732452 -0.0035546 0.002273047 0.0038611772 -0.0042346003 -0.0032545635 -0.0024421162 -0.0052414276 -5.249986e-05 0.0050698435 -0.0057454035 0.0028573035 0.0038250473 0.0014801221 0.003255346
25 0.0005706557 -0.00030936865 0.00090176554 -0.0011033159 0.0005585691 0.0016880644 -0.0026479885 -0.002293909 0.0025221617 0.00346214 0.0031974302 -0.0015158912 -0.0033696068 0.0026678552 -0.00049002963 -0.0016560497 0.00082127406 0.0026846475 0.0011914283 -0.0013957189 -0.0020717715 -0.0010387704 -0.0017505287 0.00066523085 -0.00068155734 -0.002453273 0.0018847061 -0.002799912 0.0031641275 -0.0024637338 0.0019149078 0.0009809711 -0.0027794773 0.0034255283 0.00065465097 -0.0019622808 0.0006950193 -0.0001604697 0.0023874359 -0.0025523356 -0.0018032664 -0.0006821801 -0.0016595961 0.00076794304 0.0040992876 -0.0018849464 0.0028917596 3.0797876e-06 -0.0008215686 0.003711999
1994 0.0025237955 -0.0030801652 0.0008796768 0.0023529143 0.003334536 0.002059378 -0.0024508007 -0.00058402534 0.0024124316 0.0014509811 0.0030377775 -0.0025060398 -0.0020200138 0.0008704317 -0.0006808055 -0.002599101 -0.0032984628 0.0028777812 0.0018784166 0.0041062376 -0.0013741077 -0.0026643244 -0.0010962455 -0.0022605539 -0.0014623415 -0.0014283868 0.0010081874 -0.0025365932 0.0020325063 -0.00030862575 0.003970757 0.0030981346 -0.0018669653 0.002637286 0.0014362484 -0.001869515 -0.00022418737 0.0030970247 0.0025221137 -0.0024060104 -0.0038206293 -0.0029788048 -0.001961532 -0.0035136559 0.002085767 -0.0016492191 0.0022998834 0.0014458866 0.0018474086 0.0013559429
south 0.0030578678 -0.0022483168 0.002801885 0.002092153 0.0029333124 0.0037254428 -0.0028360083 -0.0013862576 0.0033181969 0.0031587393 0.0025660929 -0.003134235 -0.0014124941 -0.00020203316 -0.0013732756 -0.0017640404 -0.004556042 0.0007623956 0.0010719314 0.0035459967 -0.0020318283 -0.004380493 -0.0033685546 -0.0029867555 -0.0025231289 -0.0013686058 0.0034678935 -0.00337595 0.0024175816 -0.0017857346 0.0025504434 0.0030958168 -0.0025496185 0.0023855937 0.0026899052 -9.990303e-05 -0.00059185043 0.0029823207 0.0024947147 -0.0017875851 -0.002254366 -0.004304236 -0.003980315 -0.0019706797 0.0034547003 -0.0015296999 0.0020389885 0.0014486177 0.0014892985 0.0008691063
on 0.008532565 -0.009038353 0.007051585 0.006536166 0.006314675 0.0105060255 -0.011060999 -0.0087526245 0.011861848 0.009327045 0.009854546 -0.010843232 -0.010803396 0.011057277 -0.008322465 -0.011923664 -0.008424513 0.008374147 0.008613302 0.0051682033 -0.011301066 -0.009716089 -0.011373612 -0.010733711 -0.009763645 -0.009886894 0.010613982 -0.011839204 0.008157094 -0.009127751 0.010150518 0.0111189345 -0.012608166 0.008799482 0.008838655 -0.008882918 -0.00328573 0.010702379 0.011625489 -0.0094335135 -0.011061435 -0.007893407 -0.009439746 -0.0058593405 0.011387101 -0.011185735 0.0106090875 0.0076082274 0.009954298 0.011312305
29 -0.0016008858 0.0017112714 0.0006953323 -0.0011914644 -0.0019372497 0.00031806185 -0.002705261 -0.0005642916 -0.00043433867 0.0031616967 -5.781937e-05 0.0013369988 -0.0019723084 0.0006456134 5.809213e-05 -0.00245504 0.0013375528 0.0004025052 -0.0016555687 -0.001688223 -0.0014824827 -0.00011399361 -0.0004558077 -0.0008405805 0.0019457383 -0.0010272299 -0.0012779537 -0.0010170938 0.0013368005 0.00011025787 -0.00020031034 0.0007089911 -4.883007e-05 -4.1132924e-05 -0.0012441473 -0.0019432004 0.0013239924 -0.00077937543 0.0006178655 -0.0009031999 -0.0003723592 0.0015443811 -0.000634471 0.00082527567 0.0016797183 -0.0014004924 0.0012649351 -0.0015694313 0.0005728462 0.0012230179
county -0.001447169 0.0024709292 -0.0003930199 0.00017523095 0.00064015074 -0.0006596818 0.0014047271 -0.0011677655 -0.0011996899 -0.001516902 0.00051573355 0.0020946336 -0.00013589274 -0.0029894772 0.0009730824 0.001596193 0.0013817411 -0.0025506169 -0.0024054234 0.0026027765 0.001359794 0.0018712294 0.00030193588 0.00067604793 0.0020993035 0.0016892398 -0.0015393784 0.0007141855 -0.0017203435 0.0016233446 -0.00036490939 0.00051346765 0.0013868369 0.000521948 -0.0024993601 0.0011644417 0.0008383459 -0.0012663912 -0.0016124435 0.0022164348 0.0010367795 0.00019766427 -0.00021386621 0.0018665275 -0.0013509478 0.000571651 -0.00071763917 -0.0023116835 -0.00070048595 -0.0027105454
new 0.0029633192 -0.0035727767 0.0054251305 0.0032013243 0.0041249963 0.005216722 -0.004567377 -0.0020091624 0.0043046437 -4.3266464e-05 0.0032578341 -0.005055978 -0.005322574 0.0039124247 -0.0030304105 -0.0038244382 -0.002975035 0.0057568033 0.0051511 0.001510429 -0.005635294 -0.0029874837 -0.0058175926 -0.004190919 -0.003012926 -0.0053396323 0.0038086486 -0.0043825917 0.0030413389 -0.007738058 0.0055705644 0.0041963896 -0.004952182 0.0048930645 0.0033489345 -0.0040930444 -0.002935108 0.005799719 0.0050788946 -0.0058489554 -0.0043357173 -0.004644339 -0.00468565 -0.0040970575 0.0054734703 -0.0030400897 0.005676633 0.004878034 0.0036965595 0.005395306
york 0.0012916006 9.6102325e-05 -0.0016921711 -0.00016968203 0.001456949 0.0026514267 -0.0024366118 0.0027310157 0.0021392733 -0.0047070645 0.00042026033 0.00011415594 -0.0027634613 0.0022402178 -0.0012653717 -0.0016730482 -0.0003318173 0.0018551601 0.0004677229 -0.0018218615 -0.0014321582 -0.0017608864 -0.0011650332 -0.0015941851 -0.002719439 -0.00046675018 0.00060203805 -0.0020995345 -0.003643183 -0.0020791797 0.00150627 0.0021150913 -0.0010855875 0.0022558125 0.0012589187 -0.001437831 -0.0024818417 0.0008987508 0.00073601265 -0.0017568019 -0.0006003232 -0.0022294174 -6.238275e-05 -0.00044479247 0.0023861697 -0.0010245739 -0.00022146596 0.001620179 0.00027286238 -0.00019247641
company 0.0017923948 -0.0023893847 0.0008380045 0.0010063235 0.0041400534 0.0022501184 -0.0032508883 -0.00046379006 0.0021965127 0.00012364911 0.0033016105 -0.002340096 -0.0013199232 0.0027531572 -0.0029221626 -0.0022854998 -0.001421833 0.0015897298 0.0025913117 -0.0005873293 -0.0027010397 -0.0026910985 -0.0034803178 -0.0019305586 -0.0022322088 9.617561e-05 0.003222346 -0.0021538907 0.0012026484 -0.0018886123 0.00079558574 0.0021293666 -0.0018999816 0.0020579477 0.0031569134 0.0007346374 -0.0021903806 0.0018366649 0.00052073254 -0.0024633615 -0.0025049034 -0.0010335717 -0.0021987355 -0.003927094 0.0032975099 -0.001110612 0.002249193 0.0018743182 0.002008448 0.0031629773
which 0.004516583 -0.0056011137 0.0015681778 0.0033020189 0.004124847 0.003949532 -0.0043697786 -0.0027656292 0.002670928 0.0031877314 0.00400884 -0.0040207733 -0.0048491326 0.004901984 -0.0024734905 -0.004866802 -0.0033406299 0.0021581256 0.0042472146 0.0022721842 -0.00356533 -0.003500838 -0.005068265 -0.0034480686 -0.003768101 -0.0056010867 0.0042321864 -0.0042020036 0.002274546 -0.0025177284 0.004775169 0.0041630524 -0.0040139 0.0033512234 0.0032434084 -0.0037988266 -0.002685805 0.0038561309 0.0033558495 -0.003719941 -0.0032414494 -0.0039846394 -0.0047709495 -0.002601128 0.0022695793 -0.003270398 0.0023595889 0.0036977255 0.0036685008 0.004003106
death 0.0016995246 -0.0012662228 0.0024123092 0.0016539693 0.00091804727 0.0015562808 -0.0020810936 -0.003932945 0.0020899256 0.0010360028 0.0017248509 -0.0016428191 -0.00040342237 0.0008786362 -0.0017272581 -0.0014139134 0.00044563581 0.0024260618 0.0012455921 0.002040746 -0.0009877777 -0.0018314149 -0.0010824524 -0.0001111625 -0.0013158746 -0.0005404548 0.0017742461 -0.0018794943 -0.0007785211 -0.0013569139 0.001205359 0.0014325064 -0.0017101123 0.00024690933 0.001364508 -0.0010007728 -0.0012622789 0.002821389 0.0003867145 -0.0005556294 -0.0015967652 -0.0015612089 -0.0011913859 -0.0024488445 0.0017255943 -0.0013239026 0.004025378 0.0038071764 0.0020410614 0.001185241
member 0.0039252765 -0.0029206173 0.0044398876 0.005754745 0.0060488214 0.0051935026 -0.0055073057 -0.0038712483 0.0046404256 -0.0015450834 0.004715118 -0.0062743165 -0.004847691 0.003561388 -0.005034442 -0.0050930474 -0.004674706 0.0039820443 0.003796706 0.0036038032 -0.004489305 -0.0023220263 -0.0035942453 -0.0045068166 -0.005136118 -0.0010633792 0.0050909608 -0.004839196 0.0012236533 -0.0037700946 0.0042570224 0.005539183 -0.00568008 0.005107024 0.0048232344 -0.0020208722 -0.006057124 0.0042847786 0.0056585576 -0.0036986398 -0.0054276786 -0.005325433 -0.006309 -0.004965229 0.0041540344 -0.005520879 0.0043952586 0.0050258734 0.0065063196 0.0055079097
assembly 0.002029486 0.0005476035 0.000871703 0.0012838029 0.0013898931 0.0016732807 -0.0013260609 -0.00033370723 -0.0001075304 0.00012293861 0.0008202748 -0.00041636542 -0.00039158127 -0.00079770107 -0.0016177037 -0.0010380012 -0.0024672186 0.00066863454 0.0018074823 -0.0005665735 -0.0012176989 0.0004019437 0.00062713824 -0.001487901 -0.0009675574 0.0005088664 -0.0013161551 0.00033442886 0.0015185669 -0.0008981033 0.0014773787 0.0019906198 -0.0026494113 0.0007557261 0.00040781483 0.001485311 -0.0011494644 -0.0015416824 0.0011235166 -0.00035639096 -0.0008719029 -0.0025505673 -0.0029017038 -0.0022213678 0.0005752126 -0.00033528666 -0.00070783065 0.0011626229 0.001552666 0.001422381
co 0.0035935608 -0.0053627742 0.0040816637 0.004257469 0.003961432 0.0037336112 -0.0026015567 -0.0029476318 0.0029829561 0.0017809528 0.0027154947 -0.003955869 -0.0041411044 0.0020179409 -0.0038534547 -0.0033780811 -0.0035626343 0.0039867926 0.0047787298 0.0051389798 -0.005504403 -0.0054773265 -0.0024977105 -0.003208017 -0.003861889 -0.0036869056 0.00346908 -0.0027778517 0.0036652214 -0.0033348368 0.0057443776 0.0045620175 -0.0037935574 0.005121112 0.0042800456 -0.0036497968 -0.0031972153 0.005276669 0.003064589 -0.0028450754 -0.0047129 -0.0052780323 -0.004819078 -0.0031465956 0.0034125466 -0.0032869147 0.0028578297 0.004429363 0.0033252419 0.0038125047
january 0.0052494425 -0.0022223291 0.004082166 0.0007640742 0.0028847116 0.0036952125 -0.0041515385 0.00031501864 0.0052365465 0.0038522433 0.0036744927 -0.0031033445 -0.0035071953 0.0020128866 -0.002130677 -0.0035284348 -0.0049925162 0.002735738 0.003919773 0.0022658599 -0.003916369 -0.004503651 -0.0022396485 -0.0031970073 -0.005006599 -0.004404857 0.0040347553 -0.003572905 0.0037510062 -0.0027241078 0.0039431807 0.003426712 -0.0032858578 0.003121168 0.0034766833 -0.005229706 -0.00089784374 0.00395064 0.003772261 -0.0042016017 -0.0040029706 -0.0033377733 -0.0033399027 -0.0015536713 0.0051845345 -0.0046999464 0.0042996067 0.00083518494 0.0032902102 0.004259662
having 0.00071301666 -0.0022425218 0.0013642274 0.003025965 0.00017423641 0.0010240976 -0.001531424 -0.0022055386 0.0011156357 4.206126e-05 0.0018152845 -0.00173728 -0.0010693327 0.0023419047 -0.0021197586 -0.002550762 -0.0022943786 0.0040344866 0.0025528872 0.0021533158 -0.001613607 -0.002164302 -0.0011173164 -0.0022705656 -0.001876067 -0.0033015653 0.0021587168 -0.0015068663 0.0008216446 -0.0017305955 0.0014959401 0.0019002372 -0.0018681666 0.0012764494 0.0013967908 -0.0015423135 -0.0018245481 0.0035440288 0.00083576026 -0.0018699488 -0.0020871172 -0.001879606 -0.0024677606 -0.0024016541 0.0008947726 -0.0020861612 0.001187656 0.0034597302 0.0024979415 0.0025439889
received 0.0031710486 -0.0032755136 0.000837045 0.0029857366 0.003212563 0.0016247232 -0.0026239133 0.0014733225 0.0024567165 0.001082447 0.0022778485 -0.0036277405 -0.0016867984 0.0018885903 -0.0035758393 -0.0020652513 -0.003964785 0.001952936 0.0019242323 0.0027243542 -0.0036091073 -0.0028112023 -0.0016484756 -0.002562265 -0.0041783266 -0.0007621472 0.0020681338 -0.0026594135 0.003773205 -0.0017680471 0.0020228247 0.0031508312 -0.0019788542 0.0021618048 0.0019880943 -0.0025515868 0.00221119 0.0034124765 0.0015884445 -0.0022516903 -0.0041067256 -0.0038376886 -0.0024584685 -0.002292854 0.0020154673 -0.0013389963 0.0011141838 0.0019330091 0.003433843 0.0021205929
when 0.006262235 -0.008653785 0.0065834057 0.008738364 0.008670848 0.007798487 -0.0070722573 -0.003894499 0.007149029 0.006886936 0.0075156516 -0.008085086 -0.009125561 0.0071534254 -0.0081778215 -0.009259941 -0.0076255463 0.006807959 0.008440979 0.005587303 -0.009653711 -0.008363515 -0.007643132 -0.008404797 -0.007809351 -0.007284929 0.0080139795 -0.008919867 0.0056408797 -0.006807221 0.007843619 0.008798453 -0.0074272896 0.0078020683 0.007810291 -0.0077101667 -0.002750657 0.008084963 0.008569012 -0.0062436694 -0.0068545174 -0.007180062 -0.0074773906 -0.008139059 0.008149072 -0.0067090825 0.0051719514 0.0073465765 0.0076606586 0.007856718
both 0.00052380946 -0.00086368807 -0.0023354874 0.001210248 -0.00030687882 0.0010272627 -0.00050614093 0.0026429438 0.0015471808 -0.0012764852 -0.00023251191 0.0007671264 -0.00033274238 0.0006500735 0.001993732 0.0009934027 -0.00039958738 0.0011983261 -0.00079002825 0.0008919564 0.0017797312 -0.0008122762 0.0019103299 -0.0009176574 -0.0015159161 -0.0018844496 -0.0005696102 0.00096768286 -0.0026952492 0.00031307898 -0.00020087235 -0.00058865716 -0.00014103325 -0.00096883567 -0.00015178794 -0.0009219654 -0.0015634821 -0.0008843953 -0.0005335127 0.0015727321 0.0016707884 0.00061366387 0.00035931956 -0.001198059 -0.0010907215 0.00024480978 -0.0008678085 0.0007581149 5.645114e-05 -0.0004034222
had 0.007453063 -0.008367091 0.0039179293 0.006164632 0.007876673 0.007333642 -0.007120676 -0.0019074418 0.00694556 0.004135255 0.007992216 -0.006467959 -0.007426016 0.0067672622 -0.009164653 -0.0067504216 -0.008487359 0.0056552947 0.006421983 0.0060004657 -0.0064868797 -0.0066761337 -0.0044513014 -0.009018704 -0.007829889 -0.0067663854 0.007839419 -0.005763082 0.0026567392 -0.0069902 0.008227561 0.0067741605 -0.0069644223 0.006223954 0.006929913 -0.006465553 -0.0062067215 0.007269182 0.004943605 -0.00652764 -0.0076782354 -0.0056113265 -0.008548443 -0.0076109073 0.0061047995 -0.0031325798 0.0067120935 0.0071488125 0.0073396573 0.0072594956
been 0.006084241 -0.006903476 -0.00135067 0.0058362368 0.0043082843 0.004828306 -0.0053036427 -0.0012792747 0.0056151575 7.6436336e-05 0.0036933306 -0.006666282 -0.0058392067 0.0061807274 -0.005297404 -0.004987567 -0.00025723613 0.005434786 0.0061614714 0.0035305172 -0.005350895 -0.0055460734 -0.0030234244 -0.004425495 -0.007074702 -0.0024803434 0.0052649584 -0.0051987874 0.002685574 -0.004206833 0.0066398727 0.0058699716 -0.0050155492 0.00565904 0.005550492 -0.0030603127 -0.006049701 0.0027142114 0.002927834 -0.0025746664 -0.004465691 -0.0042519034 -0.006675254 -0.0059656985 0.0035306278 -0.0029067316 -0.00045968365 0.0049768738 0.004151498 0.0057194945
members 0.0020499881 -0.0031322865 0.00017480302 0.0024106423 0.0019479067 0.001983643 -0.0032197726 0.0015426101 0.0012226467 -0.0018730054 0.0003051468 -0.0022413803 -0.002512039 0.0025001122 -0.0016562276 -0.0016853666 -0.0008593647 0.0006919191 0.0029500935 0.0007078101 -0.002691457 -0.002986268 -0.0029882072 -0.0024803148 -0.0015717573 -0.0017068249 0.0020845833 -0.0013307459 -0.00012689456 -0.00065693463 0.0017332009 0.0022192872 -0.0024595219 0.0016632546 0.002048747 -0.0008128272 -0.0023913083 0.0018355029 0.0014329989 -0.001825037 -0.0012547242 -0.0026971782 -0.0026280035 -0.0027842491 0.0021320684 -0.00076082296 -0.00046161193 0.0024855845 0.0018797058 0.0019324203
resigned 0.0032973555 -0.0035507954 0.0017036711 0.0031207725 0.0029770879 0.0036719602 -0.0033422965 -0.0011101235 0.002092268 0.0031494794 0.002931132 -0.0027591505 -0.0029696638 0.0033661947 -0.0026256023 -0.00240816 -0.003327778 0.0029672156 0.003191585 0.003770019 -0.0034991605 -0.0022045404 -0.0035583575 -0.0034298624 -0.002583394 -0.0032017627 0.0024996498 -0.0026305376 0.00023202306 -0.0027466672 0.003608179 0.002063401 -0.0021914965 0.0022526707 0.00294792 -0.0030853965 -0.0023051922 0.003236961 0.0034378713 -0.003251009 -0.002800045 -0.002845448 -0.0031893426 -0.002755285 0.0033696322 -0.0030196682 0.003449074 0.0029188192 0.0024789257 0.0023324282
first 0.006660316 -0.007228475 0.006387818 0.0070061875 0.0069310777 0.0069387755 -0.007453334 -0.0026780025 0.0077286093 0.0031308557 0.0057474254 -0.0065540806 -0.007761348 0.00742276 -0.0060469448 -0.008349945 -0.0061503677 0.008293704 0.0065958495 0.0050472887 -0.006982753 -0.007796964 -0.006683114 -0.0072157034 -0.0050208857 -0.0061322586 0.0065596253 -0.0073256 0.0036051432 -0.0077918377 0.007689476 0.00725402 -0.008021522 0.00730203 0.0072024474 -0.0052474346 -0.00509818 0.008778432 0.0061117043 -0.0075954567 -0.0074383137 -0.004760121 -0.0058025494 -0.00820495 0.0064124786 -0.0068077394 0.0049810517 0.0069109034 0.006962072 0.008656998
then 0.00260893 -0.0028316511 0.0016989397 0.004491268 0.0033351395 0.0024696095 -0.0023284932 -0.0022161389 0.0031370013 0.0014947439 0.002184566 -0.0022350268 -0.0023414334 0.0023787036 -0.0033966743 -0.0026891388 -0.002547215 0.0026083165 0.002374411 0.002444441 -0.0028192068 -0.002933584 -0.0020671973 -0.00307988 -0.0025965387 -0.0040362184 0.0028937638 -0.004513414 0.0023240475 -0.003137053 0.0027965792 0.002265197 -0.0025862625 0.0010693598 0.0022975556 -0.0015472885 -0.0011003367 0.002524689 0.0017062005 -0.0018950986 -0.004410147 -0.0016546394 -0.0030163035 -0.0038872673 0.0025542455 -0.0015226813 0.0022107118 0.0026439333 0.002971191 0.002444174
4 0.0025765903 0.00024330885 0.010276865 -0.0032507633 0.00016087525 0.0047047655 -0.00743409 -0.0050359615 0.008728937 0.009845008 0.008538719 -0.0037492965 -0.0075517474 0.0055205245 0.00029502012 -0.0091720065 -8.0357735e-05 0.0065223114 -0.00073088624 -0.0004956539 -0.008235819 -0.0052137733 -0.006585473 -0.0067798076 0.0004883581 -0.008262526 0.005834063 -0.009559825 0.009070415 -0.007040421 0.0030551758 0.004642784 -0.008687943 0.007423406 0.00015852967 -0.008231288 0.0019484562 0.0012177433 0.007412998 -0.009373972 -0.0092525035 -0.00036829762 -0.006264625 0.000109591434 0.010961149 -0.009144477 0.010112332 -0.0026224295 0.002173488 0.008480473
died 0.0038454295 -0.0033509384 0.0023594573 0.0029704673 0.0018472166 0.0036510348 -0.0035244338 -0.0016418793 0.0038360152 0.0031485788 0.0020210124 -0.0026900948 -0.0039597983 0.0036953331 -0.0023886187 -0.0019975142 -0.003446467 0.0024695056 0.0034555432 0.0023836247 -0.0031942208 -0.004935629 -0.00354204 -0.0029410508 -0.002802317 -0.0029110357 0.0056052115 -0.004074382 0.0011922637 -0.0028649664 0.004151787 0.003112924 -0.0035268771 0.0026833438 0.0035910197 -0.004174253 0.0013014469 0.004231119 0.0039229393 -0.002707816 -0.0030819336 -0.0015256085 -0.004191998 -0.0013582768 0.0036124743 -0.0035318502 0.0037048685 0.0032636812 0.004846628 0.0029627236
28 0.002971016 -0.0020842873 0.0027547386 0.0006809423 0.00014836465 0.0025606037 -0.0036184746 -0.0009230237 0.0033425645 0.0037755435 0.0029139998 -0.0037378683 -0.004200357 0.0036015247 -0.0016750761 -0.003738179 -0.0015909228 0.003213101 0.0030973123 0.0009126466 -0.0029414846 -0.0037922247 -0.0033448858 -0.004541729 -0.003495072 -0.0019343788 0.004244167 -0.0050128237 0.001983336 -0.0022435011 0.00084917084 0.0026810241 -0.003114882 0.0008200072 0.0026122534 -0.0042141606 0.0006943996 0.0036653292 0.0035509754 -0.005013699 -0.0040174252 -0.0034554463 -0.0025945934 -0.0019184395 0.004049548 -0.0040517556 0.002593072 0.0033771105 0.002923828 0.0031157194
1922 0.0015211094 -0.00093040784 0.0026941684 0.00028973547 0.0017066301 0.0027769716 -0.0025604581 -0.000744072 0.0014804921 0.0014375101 0.0019603793 -0.0022242393 -0.0017796762 0.0030383412 -0.0013917007 -0.00228621 -0.0013453049 0.002002319 0.0010508836 0.000101122685 -0.0025137274 -0.0017283687 -0.0020410712 -0.0022957413 -0.0019998932 -0.0013952821 0.0009521562 -0.0031583626 0.00059376814 -0.0032446661 0.0010828043 0.0010143125 -0.001427648 0.0015841605 0.0012249195 -0.0025029457 0.00048043267 -0.0002640615 0.0020968395 -0.0028531996 -0.002425704 -0.0011592727 -0.00167252 -0.0004249299 0.0030637737 -0.0029265378 0.00085861556 0.00028524522 0.00054833584 0.002513288
home 0.0017411258 -0.0024532971 0.0024663354 0.002603057 0.0019502211 0.0016379032 -0.0024048737 0.0009857523 0.0026615744 0.0018067841 0.0023718805 -0.00094411307 -0.0034654294 0.0021277978 -0.0008326474 -0.0021849805 -0.0015207506 0.0021709013 0.0021529638 0.0026345938 -0.0027733261 -0.0023271104 -0.0024382046 -0.0027854634 -0.0006097462 -0.0024802147 0.0015677318 -0.003485042 0.0009072757 -0.0027865795 0.0031556464 0.0025611508 -0.0026318699 0.0023138055 0.0016554376 -0.0027939617 -1.3192188e-05 0.0034415987 0.0035092542 -0.0008207498 -0.002143487 -0.0010979964 -0.0017411442 -0.0017362987 0.0016455058 -0.0024983014 0.004081447 0.0025334004 0.0018135372 0.0016564428
now 0.00069306523 -0.0019394752 0.0013023486 0.0013113613 0.0017086758 0.001071251 -0.0012332947 0.0006762667 -0.000245368 -0.0026762977 0.00064404553 -0.0013659464 -0.0012854874 0.00065398845 -0.0010845454 -0.0014074155 -0.0012692107 -4.228518e-05 0.0012308422 0.00085436855 -0.0018233501 -0.0018122279 -0.0011216177 -0.0015576358 -0.0012990268 -0.0012446662 0.0029842206 -0.00017933472 -0.0012990851 -0.00075979135 0.0018435312 0.001933047 -0.0021144024 0.0017772401 0.0025155062 -0.00047492998 0.0012570542 0.0017506866 0.0013426233 -0.00070310384 -0.00094462355 -0.0031663966 -0.0026047905 5.1732364e-05 0.0003377008 -0.0010009849 0.0032909345 0.0016256692 0.00015866896 0.001109852
biography 0.00058637175 -0.0004192121 0.0020852361 0.0004981938 0.0021658046 0.0011385706 -0.0004485076 5.451555e-05 0.0011266574 -0.00058065885 0.00067709875 0.00031486945 -0.0014021088 0.00011104906 -0.0020720467 -0.00040897864 -0.00075233745 0.0017085831 0.00036040496 0.0007906772 -0.0005468635 -0.0020145357 -0.001988307 -0.0011083143 -0.0005528034 -0.003199874 0.00017630318 -0.0006498781 0.0011582555 -0.001595867 0.00072104775 0.0008802587 -0.0004485414 0.0015131704 0.00093610055 0.00016271198 -0.0008682976 0.0017868718 0.0015279541 -0.0019243497 -0.0018785843 0.00050590374 -0.0009717919 -0.0022080196 0.0011827617 -0.000563809 0.0013088124 -0.0014305379 0.00015501463 0.0012368093
family 0.0027672322 -0.0044940887 0.002369819 0.0025184148 0.0039240443 0.0027944392 -0.0020689992 0.0013189169 0.0008966675 0.0023558373 0.0019994192 -0.00368333 -0.0031023389 0.0028414614 -0.0010402427 -0.0016194555 -0.004518078 0.0017842521 0.0022093365 0.004608662 -0.002091086 -0.0021047168 -0.002262558 -0.002828293 -0.0037721146 -0.0020124032 0.0037710613 -0.0027136104 0.0012118642 -0.0011116446 0.0037030736 0.0020720374 -0.002988664 0.001670153 0.002775529 -0.0021861128 -0.0020201982 0.0034580412 0.0035628001 -0.0026166942 -0.0038216203 -0.0025639043 -0.0025912533 -0.00449779 0.0020638674 0.0027104393 0.001944729 0.0044611273 0.0023768789 0.0028053974
de -0.0012563985 0.00082041824 -0.0024633075 -0.0021049876 -0.0018952335 0.00018517047 0.00056642195 0.0030783874 -0.00063580746 0.0028910905 0.0013983417 0.0003074879 0.0007797565 -0.0015150058 0.0013110864 0.0010222527 0.0003819297 -0.00029472276 -0.00089291605 -0.00045380922 -0.00029330884 0.00295883 0.0013388245 0.0010874281 -0.0011287911 -0.00018901519 -0.0016021891 0.00064786285 -0.0027596483 -6.0058723e-05 -0.0014004718 -0.0021604104 0.0014684655 -0.0034737203 -0.0010149523 -0.0014266537 0.0014548152 -0.0022255601 -0.0013716512 0.00074571016 0.00041373537 0.0012527081 0.0004423456 -0.00044532234 0.001205819 0.0015476444 -8.2173385e-05 -0.00029065233 -0.0006052942 -0.00105847
studied 0.0042213164 -0.0021963986 0.0034704246 -0.00086856325 -0.0005515574 -4.167297e-06 -0.0022495068 -0.0004682872 0.00076376327 4.7810903e-05 0.000250923 -0.0032564194 0.0014702617 -0.0006496915 -0.00094539445 0.00016638369 -0.0023290268 -0.0003319121 0.0015732899 0.004025362 -0.0020997105 -0.0028893517 -0.002820948 -0.0029605837 -0.0038945805 0.0026744115 0.0032628893 -0.00062527426 0.0016114035 0.00086992735 -0.0007365417 0.0046305405 -0.00067941914 0.0030029418 0.0007692028 -0.0003166271 -0.0017414233 0.0010547992 -0.0006968784 -0.00016387555 -0.0016813283 -0.0027091037 -0.0016081542 0.000623277 0.0002602362 0.0022096438 0.0024627068 -0.0010400398 0.0024581105 -0.0009936161
university 0.0040924638 -0.0034046522 0.0044633937 -0.00011387099 0.00054773816 0.001413702 -0.0034817841 -0.00041003455 0.0008177001 0.0011955131 0.0017746998 -0.00397631 -0.0012299469 0.0022036382 -0.0023359524 -0.001703806 -0.0012228339 0.0018949611 0.0036556427 0.0032701185 -0.0030523608 -0.0017941515 -0.0008415035 -0.0028755001 -0.005470513 0.0017980555 0.0028106447 -0.001198065 0.0033926084 0.000779386 0.0028528294 0.0047476445 -0.004076197 0.0036392186 0.0012068745 -0.0021040353 -0.0005624451 0.0020820515 0.00051682995 -0.002916051 -0.0013409879 -0.005111794 -0.0037805985 -0.0010896401 0.001595879 -0.0008908461 0.0043423036 0.0012035739 0.0047932733 0.001263065
19 0.0021542015 -0.00055245776 0.0029704247 -0.0005851802 -0.0018731212 0.002385942 -0.003538941 -0.0016481808 0.0020234801 0.0044850213 0.003677581 -0.0019616755 -0.002417856 0.002468505 4.0889563e-06 -0.0022124138 0.00022328133 0.003462158 -0.0013266935 -0.0031138414 -0.0033529904 -0.0012230533 -0.0031359852 -0.0013298132 -0.00046662427 -0.0039716256 0.0014688681 -0.0029244823 0.0040155514 -0.0025784608 0.00090239086 0.001720995 -0.0029704913 0.001548339 -0.0007469432 -0.0047120927 0.0011028826 0.0008086113 0.0033118962 -0.0028415024 -0.0034750043 0.0011004377 -0.0031137809 0.0010811499 0.003385526 -0.0040748655 0.0033382697 -0.0015410741 0.0016795022 0.0020501828
march 0.0022629641 -0.0023572412 0.004640018 0.0015770476 0.00086857664 0.004285797 -0.0046849446 -0.00074509234 0.0045999032 0.003397505 0.004169872 -0.004134113 -0.0041071833 0.004505818 -0.0020271565 -0.0047887494 -0.0034311397 0.0046782237 0.0023026702 0.00034539346 -0.0047621774 -0.005537256 -0.005161314 -0.0048243795 -0.0030774258 -0.0047235503 0.0036151377 -0.002754381 0.0026475221 -0.0028411096 0.0014302229 0.0032751674 -0.0040190676 0.0047961078 0.0026141582 -0.0050484953 0.0012439637 0.0026470486 0.00398064 -0.005300789 -0.0041666348 -0.0034635821 -0.004259045 -0.00071802863 0.005113159 -0.005766532 0.004808817 0.0016804833 0.003298982 0.0047939364
1968 0.0032686405 -0.003479784 0.004400574 0.0024981282 0.00309874 0.003334764 -0.0029691982 -0.00047335977 0.00270404 5.2276413e-05 0.0023617025 -0.0023998495 -0.0032724873 0.0018210011 -0.0032975902 -0.0010761822 -0.003253003 0.004176388 0.0033092913 0.0039912895 -0.002990667 -0.0038950455 -0.0040857117 -0.0037861718 -0.0044455924 -0.002535897 0.0018370668 -0.0007514952 0.0008970099 -0.0030211 0.004283725 0.0036560693 -0.0034877802 0.0029768087 0.0015428647 -0.0033549678 -0.0024610637 0.0016659147 0.0037622142 -0.0030570778 -0.0035039391 -0.0044926363 -0.0036507603 -0.0024093576 0.0021368468 -0.00093173404 0.0042331237 0.0023298776 0.003405063 0.0037952452
law 0.0027573989 -0.0026998424 0.0025674354 0.002399816 0.0015182539 0.0019599309 -0.0031603272 -0.0012636867 0.0016380294 0.0010819916 0.0024885042 -0.002500583 -0.001310214 0.0019225697 -0.0025228527 -0.0021051147 -0.0017629998 0.00123423 0.0026145366 0.0029913161 -0.003198505 -0.0024630288 -0.00093924475 -0.0024222068 -0.0021430536 -0.0022109058 0.0030481825 -0.0033789254 0.0023338313 -0.0027828945 0.0024130773 0.0030174197 -0.0030721247 0.003986275 0.0024604367 -0.002061935 0.0006483471 0.0030592983 0.0036402214 -0.0019263704 -0.0030769021 -0.0033218726 -0.0029276877 -0.0015501817 0.0032882944 -0.0010013876 0.0014270198 0.0010048432 0.003382393 0.002162891
while 0.0050214394 -0.00423149 0.0033347795 0.0036597883 0.003536907 0.0041225557 -0.004603755 -0.0023198745 0.0022222903 -0.00038548795 0.0034773839 -0.0051714103 -0.00365254 0.004012581 -0.0033446064 -0.004176273 -0.0037726667 0.0035624306 0.0047220383 0.0031622706 -0.0035302674 -0.004622191 -0.0043844506 -0.004096498 -0.0053243944 -0.0026658517 0.0040131044 -0.0035841279 0.0023801578 -0.0039119264 0.004844508 0.0037400746 -0.004472944 0.0067705642 0.004682474 -0.003251425 -0.002365006 0.0029684943 0.0037104625 -0.004202403 -0.0031999568 -0.005493519 -0.00513564 -0.0028940137 0.004350321 -0.003729832 0.0037721249 0.0029288027 0.0049731145 0.003960992
already -0.0024488217 0.0018632937 -0.0021177307 -0.0011471363 -0.0028716158 -0.002421778 0.0026829822 -0.000332096 -0.0025512266 0.0011633047 -0.0015118155 0.0011907971 0.0009670485 -0.0016382016 0.0014461363 0.0008244749 0.0029645974 -0.0025598756 -0.0021470627 0.00040753224 0.0015022309 0.00284476 0.0024965697 0.0010707745 0.0025459833 0.002596401 -0.0025422142 0.0019398839 0.00021447308 0.0016386901 -0.0023007882 -0.0012847277 0.0010884051 -0.0015743198 -0.0030047295 0.00068302103 0.00083079364 -0.00081783894 -0.0015759793 0.0015860555 0.00078852155 0.0016930733 0.0028681392 0.0011222936 -0.0011317291 0.0018749023 -0.00089629437 -0.0014213277 -0.0022216195 -0.0022261897
working 0.00044684284 0.0007857896 0.0013680585 -0.0005605448 -0.0007368833 0.00014277654 -0.001204737 0.0027612802 0.00075331406 6.812642e-05 0.0007553852 0.00065284694 -0.0011965778 -0.00096621976 -0.0018323261 -0.0008984913 -0.0009569841 -0.0006895805 0.0009300311 0.0003949952 -0.0001895184 -0.0007042077 -0.0003824189 -0.00040377368 -0.00035976208 -0.0012371021 0.0006298239 0.00014097356 -0.0012932565 3.6711448e-05 0.00071165396 0.0016293386 -0.00041179958 0.00034452602 0.00021684497 -0.00027423238 0.0011223583 -0.00084197416 -0.0007189973 -0.0013811688 -0.0015252996 5.6700574e-05 -0.0016406579 0.000777663 0.0005973972 -0.00011577961 0.00027995263 -0.0011300549 0.00047501345 0.00054020673
see 0.001307597 -0.002014943 -0.00045887183 0.0024744056 0.0040414813 0.0013775314 -0.0007258464 -0.0018685162 0.0018890217 -0.002844573 0.00082059426 -0.00087972486 -0.0012668292 0.0012422578 -0.0018737944 -0.0010643897 -0.0031660916 0.0017942115 0.0016227481 -0.0013377826 -0.0012871647 -0.0013194692 -0.0009929752 -0.00083239964 -0.0008983587 -0.0020112311 0.0016471234 -0.0016721744 -0.0012551153 -0.0016224538 0.0012425425 0.0009311061 -0.0010407494 0.00054328254 0.0016657051 -0.00045171156 -0.001706044 0.0015851313 0.0030110017 -0.0017736182 -0.002957636 -0.0012227423 -0.00082738994 -0.0033117128 0.001436442 0.0010136093 0.00089624926 0.0034988606 0.002367019 0.001177188
included 0.0006610248 -0.0029711814 0.0038819064 0.0020006427 0.004369765 -0.0006313953 -0.0017620496 -0.0011102534 0.0011215657 0.0019605097 0.0028076523 -0.0023516433 -0.0027425685 0.004031019 -0.004011762 -0.0021502743 -0.001813373 0.0012893192 0.0028118275 0.005034406 -0.0026646436 -0.0030703226 -0.0011385626 -0.0029080936 -0.0011474591 -0.0032591822 0.0025025522 -0.0022591895 0.0032232662 -0.0027578766 0.0019884184 0.0027037063 -0.0033919965 0.0028476643 0.0028001498 -0.0025009457 -0.004925707 0.00070439617 0.0018557103 -0.0034151839 -0.0024256683 -0.001615058 -0.0017051017 -0.004023411 0.0015052268 -0.0012001522 0.0007400939 0.00408848 0.0029610854 0.0025066696
july 0.00070214656 -0.0013172975 0.001577386 -0.0011241303 0.000984564 0.0008186667 -0.0017424582 -0.0021664188 0.0030019244 0.0038283374 0.00363318 -0.0011648276 -0.0017056115 0.001047117 0.0017391725 -0.0017960921 0.000570284 0.00030115366 0.0015408992 0.00070161565 -0.0021111828 8.468805e-05 -0.0015519317 -0.0006590009 0.00079080707 -0.0024929233 0.0011439183 -0.0022105225 0.0023416332 -0.000819296 0.00044072786 0.001023304 -0.0019748965 0.0021961252 5.1317853e-05 -0.00337308 0.0002384692 0.0005170329 0.0008665636 -0.002237035 -0.001920357 -0.0010728061 -0.000121942314 0.000615305 0.0022996732 -0.0030064995 0.0027689885 0.0002130261 -0.0011198616 0.0016900331
pope 0.0016364931 -0.001190444 0.0004327865 0.0016472487 0.001151233 0.0018099728 -0.00095032924 -0.0034658413 0.0015364117 0.0021348144 0.0013466938 -0.0015288146 -0.0012567305 0.0014288955 8.612187e-05 -0.00094006147 -0.0015263013 0.0018827472 0.0009890768 0.00087009126 -0.00083094207 -0.0020109408 -0.0016336391 -0.0019672706 -0.0020231826 -0.0020930178 0.001245976 -0.0016611518 0.0023298755 -0.0011541656 0.0014518643 0.0009853446 -0.0016609713 0.0021790531 0.00086064206 -0.0014859993 -0.00023661279 0.0006642647 0.001369722 -0.0003581421 -0.001999388 -0.0018004181 -0.0020357457 -0.00097319274 0.0015681322 -0.002458964 0.0019188429 0.0020143075 0.0013574451 0.0011184184
john 0.0062868944 -0.0053232596 0.0055295997 0.0036454056 0.0046013263 0.0053915107 -0.004082221 -0.00014691787 0.0052587325 -0.0003750241 0.00508085 -0.0028071967 -0.004016482 0.0048199417 -0.0036196066 -0.0035130607 -0.0042910674 0.006809985 0.00421628 0.0018576982 -0.0037802253 -0.0061972165 -0.006313136 -0.004073561 -0.0045933505 -0.00077541394 0.0054999003 -0.0039853686 0.003523939 -0.00426888 0.003893208 0.004900075 -0.0048585506 0.004345511 0.0044658915 -0.0030908054 -0.0009598504 0.004684433 0.0029313408 -0.0045313993 -0.0019171092 -0.004987093 -0.0055562523 -0.00275502 0.0032930938 -0.0042661848 0.0060634343 0.004080039 0.0042221975 0.004536594
paul 0.0025177486 -0.0029038053 0.003946286 0.0026316668 0.0038422702 0.0025595473 -0.0023685053 -0.0018296578 0.0033418152 0.00064153364 0.004124348 -0.0020357443 -0.0019269862 0.0029482984 -0.0026168404 -0.0032710477 -0.0027307884 0.0025478986 0.002050479 0.0013148598 -0.0027620276 -0.0032054093 -0.0025526257 -0.003925329 -0.0026811184 -0.00378113 0.0023216335 -0.0036877957 0.003740199 -0.0044133416 0.003993056 0.0028939676 -0.0018611082 0.0043327683 0.0029617313 -0.0028893203 -0.002916245 0.0028736545 0.0033112166 -0.0028848967 -0.004248416 -0.003674776 -0.002411734 -0.0028088654 0.0022095614 -0.0028746764 0.0029241557 0.003585983 0.003129963 0.0019576105
ii 0.002408501 -0.0015496894 0.00044925025 0.001241541 0.0025331527 0.0023399056 -0.002333671 -0.0011373144 0.0013080178 0.0009079689 0.0016010912 -0.0006040173 -0.00036981775 0.0021702808 -0.0017829488 -0.0029432634 -0.0011187172 0.00092111225 0.0012556468 -0.0016861875 -0.0019557131 -0.0030105817 -0.0022463067 -0.0025750366 -0.0011857287 -0.0020093205 0.0017271176 7.953477e-05 0.0016430129 0.0004992184 0.0015768325 0.0014882789 -0.00109415 5.4628774e-05 0.002243924 0.0016529079 -0.00022548297 0.001148253 0.00096812897 -0.0013358658 -0.0025718238 -0.00038085206 -0.002612771 -0.0012888317 0.0018968018 0.00031752526 0.0012750999 0.0018563323 0.002112197 0.0020344763
appointed 0.003755336 -0.004670447 0.001167718 0.0041708606 0.0035699992 0.0051877243 -0.0031021736 -0.0019777834 0.0036334833 -0.0032542595 0.0042183986 -0.0032504739 -0.0034885474 0.0046047117 -0.0041157915 -0.0018824254 -0.0030090967 0.0032660621 0.0033838656 0.0025862495 -0.0039017452 -0.0024982223 -0.004503552 -0.0037099293 -0.003771853 -0.0012300926 0.0031466505 -0.004285448 -0.0022561 -0.002624144 0.0025849498 0.0051503247 -0.0034778337 0.002348833 0.0038997168 -0.001752408 -0.004453933 0.0031532722 0.0019034579 -0.0044233594 -0.0027295256 -0.0048746145 -0.0038909502 -0.0031055165 0.004072965 -0.002980465 0.0020350104 0.0044751493 0.0046545197 0.0037237057
him 0.005339682 -0.0059333667 0.0050582867 0.0057522287 0.0052452623 0.0061896113 -0.005359221 -0.0028157057 0.005417038 0.0026923548 0.004634634 -0.004276903 -0.0061516594 0.005937868 -0.0041543567 -0.0036631967 -0.0049083335 0.0054972004 0.0052441554 0.0016684905 -0.0047919783 -0.004437737 -0.0059622806 -0.006506015 -0.00644795 -0.004038195 0.0046185046 -0.0052279076 0.0029633024 -0.004345092 0.0052955123 0.0055931457 -0.0045297313 0.004676195 0.004218966 -0.004112974 -0.0036277294 0.0055347355 0.0055487915 -0.005600759 -0.0041747 -0.004750206 -0.0055241105 -0.0047207326 0.0030991647 -0.0035775253 0.0031825614 0.0062661474 0.004718553 0.005065861
nuncio -0.0014359201 -0.00040470852 -0.00061953603 -0.0011279049 -0.0009409775 0.00057015877 0.00081214245 0.0011827691 -6.814747e-05 0.0012771048 0.0002996406 8.90333e-06 0.0004003607 0.0007740278 8.0711625e-06 0.00090312527 -0.0010907438 0.00017151845 -7.701665e-06 -0.0010797362 -1.9283949e-05 0.0014946504 0.00012210352 -0.0002600662 2.154958e-05 0.000101780795 -0.0004014661 -0.0005138617 0.00073683175 0.00018689537 -0.000571093 0.00089095574 -0.0006998199 -0.0004429751 -0.00058919936 9.14542e-05 -0.0015850535 0.0005801488 0.00014029325 -0.0010899774 0.00046746657 -0.0005431108 -0.00021868589 0.002026544 -4.5876994e-05 0.00012696066 0.0011507833 0.0013155676 -0.0001576108 0.0012703908
made 0.005814008 -0.004969814 0.0042750896 0.007118265 0.00716122 0.0063144392 -0.0063458215 -0.0036621913 0.008000699 0.0018469051 0.005791092 -0.0058192913 -0.006698698 0.00777837 -0.006903973 -0.005304892 -0.00713675 0.0061489744 0.0066911825 0.0054305927 -0.005722631 -0.00716466 -0.004840552 -0.00640452 -0.004665781 -0.0046862154 0.0053871563 -0.0076745637 0.002200938 -0.006877798 0.0064426316 0.006095258 -0.006074259 0.0055487617 0.0046316157 -0.0019389115 -0.0016037312 0.0077719186 0.0067541194 -0.004224889 -0.006596248 -0.0068385694 -0.005823907 -0.006433055 0.006152288 -0.006698097 0.0055974037 0.006227099 0.005676841 0.0057869162
20 0.0025901035 -0.0027488081 0.0027214743 0.001965538 0.0013769923 0.0029666512 -0.00383285 -4.1575164e-05 0.0031836184 0.001944745 0.004064199 -0.0031316343 -0.0031950555 0.0027614722 -0.002413134 -0.0048287786 -0.0024158298 0.0026225732 0.001750721 -0.00048984983 -0.004240774 -0.0035773637 -0.0035439695 -0.003020767 -0.001376461 -0.0039516105 0.002975156 -0.003943339 0.003974666 -0.0039938814 0.0029630843 0.0026386569 -0.0037533294 0.002195172 0.0003462185 -0.003818171 0.0015199318 0.003305561 0.0031499397 -0.0032734398 -0.002711782 -0.0012364226 -0.0026241362 0.00013169665 0.00349497 -0.003816639 0.0016023625 0.0019240258 0.0020881356 0.0028543025
1999 0.0018688998 -0.0004907714 0.002900229 0.0009736653 0.0013197595 0.0016974056 -0.0018021489 0.00066905026 0.0023588748 0.0017876815 -5.2689593e-05 -0.0016764457 -0.0029711267 0.0011830023 -0.0008343971 -0.0010662377 -0.002677445 0.0014620333 0.001073658 0.0023613137 -0.0016652767 -0.0033732592 -0.0010124716 -0.0013974478 -0.002454032 -0.0012187269 0.0017976068 -0.0017773788 0.0024833083 -0.0003925967 0.0031012364 0.0019864195 -0.0016489326 0.0028145881 0.0003424113 -0.002772429 0.0005864093 0.002657312 0.0017477869 -0.0010786818 -0.0011041109 -0.001957674 -0.0013090173 0.00030069723 0.0031601803 -0.00084746507 0.0005318703 0.0013231045 0.0013107111 0.00096459227
second 0.004543964 -0.0062362337 0.0018921347 0.0054596 0.004727192 0.0053482587 -0.004524065 -0.0022112892 0.0057067424 0.0024179986 0.0050340537 -0.003255876 -0.0045668017 0.004568821 -0.0050981324 -0.004616888 -0.004691746 0.00498652 0.0052923677 0.004749273 -0.0038056625 -0.0047559454 -0.003787702 -0.0047451435 -0.0028015783 -0.0048994566 0.0038521525 -0.0038920445 0.0016235929 -0.0055072466 0.004667467 0.004909118 -0.005457486 0.0034613023 0.0035704542 -0.004868923 -0.004930995 0.0039512995 0.0020643682 -0.0040984787 -0.0030262403 -0.0041971677 -0.0041094264 -0.0042047235 0.0038948036 -0.0048718685 0.002425367 0.005809866 0.0039250846 0.0045654913
war 0.0040598046 -0.00420426 0.0042098328 0.0057340134 0.0031929212 0.004152472 -0.0053525176 0.0012948593 0.0023362406 -0.0010935317 0.0015374976 -0.0036609012 -0.0027809935 0.004769703 -0.005476071 -0.0047284532 -0.0052243406 0.0019717156 0.0028079662 0.0023014005 -0.0057665403 -0.005171664 -0.0039947936 -0.005027663 -0.0034953696 -0.0015408687 0.005102554 -0.0030751778 0.0017699907 -0.00430578 0.0037657327 0.0056519746 -0.0018530617 0.0046723797 0.005082551 -0.00016006739 -0.0007961456 0.0046693534 0.0023035726 -0.0044967374 -0.0056805806 -0.004185267 -0.0049870443 -0.0040818187 0.003910331 -0.0003927991 0.0034425473 0.004160102 0.005344956 0.002506237
